{"learner":{"attributes":{"scikit_learn":"{\"_estimator_type\": \"regressor\"}"},"feature_names":["bandgap","H","C","N","O","F","P","S","Cl","Br","I","B","Li","Na","Mg","Al","Si","K","Ca","Ti","V","Cr","Mn","Fe","Co","Ni","Cu","Zn","Ga","Ge","As","Se","Rb","Sr","Y","Zr","Nb","Mo","Ru","Rh","Pd","Ag","Cd","In","Sn","Sb","Te","Cs","Ba","La","Ce","Pr","Nd","Sm","Eu","Gd","Tb","Dy","Ho","Er","Tm","Yb","Lu","Hf","Ta","W","Re","Os","Ir","Pt","Au","Hg","Tl","Pb","Bi","Th","U"],"feature_types":["float","int","int","int","int","int","int","int","int","int","int","int","int","int","int","int","int","int","int","int","int","int","int","int","int","int","int","int","int","int","int","int","int","int","int","int","int","int","int","int","int","int","int","int","int","int","int","int","int","int","int","int","int","int","int","int","int","int","int","int","int","int","int","int","int","int","int","int","int","int","int","int","int","int","int","int","int"],"gradient_booster":{"model":{"gbtree_model_param":{"num_parallel_tree":"1","num_trees":"550"},"iteration_indptr":[0,1,2,3,4,5,6,7,8,9,10,11,12,13,14,15,16,17,18,19,20,21,22,23,24,25,26,27,28,29,30,31,32,33,34,35,36,37,38,39,40,41,42,43,44,45,46,47,48,49,50,51,52,53,54,55,56,57,58,59,60,61,62,63,64,65,66,67,68,69,70,71,72,73,74,75,76,77,78,79,80,81,82,83,84,85,86,87,88,89,90,91,92,93,94,95,96,97,98,99,100,101,102,103,104,105,106,107,108,109,110,111,112,113,114,115,116,117,118,119,120,121,122,123,124,125,126,127,128,129,130,131,132,133,134,135,136,137,138,139,140,141,142,143,144,145,146,147,148,149,150,151,152,153,154,155,156,157,158,159,160,161,162,163,164,165,166,167,168,169,170,171,172,173,174,175,176,177,178,179,180,181,182,183,184,185,186,187,188,189,190,191,192,193,194,195,196,197,198,199,200,201,202,203,204,205,206,207,208,209,210,211,212,213,214,215,216,217,218,219,220,221,222,223,224,225,226,227,228,229,230,231,232,233,234,235,236,237,238,239,240,241,242,243,244,245,246,247,248,249,250,251,252,253,254,255,256,257,258,259,260,261,262,263,264,265,266,267,268,269,270,271,272,273,274,275,276,277,278,279,280,281,282,283,284,285,286,287,288,289,290,291,292,293,294,295,296,297,298,299,300,301,302,303,304,305,306,307,308,309,310,311,312,313,314,315,316,317,318,319,320,321,322,323,324,325,326,327,328,329,330,331,332,333,334,335,336,337,338,339,340,341,342,343,344,345,346,347,348,349,350,351,352,353,354,355,356,357,358,359,360,361,362,363,364,365,366,367,368,369,370,371,372,373,374,375,376,377,378,379,380,381,382,383,384,385,386,387,388,389,390,391,392,393,394,395,396,397,398,399,400,401,402,403,404,405,406,407,408,409,410,411,412,413,414,415,416,417,418,419,420,421,422,423,424,425,426,427,428,429,430,431,432,433,434,435,436,437,438,439,440,441,442,443,444,445,446,447,448,449,450,451,452,453,454,455,456,457,458,459,460,461,462,463,464,465,466,467,468,469,470,471,472,473,474,475,476,477,478,479,480,481,482,483,484,485,486,487,488,489,490,491,492,493,494,495,496,497,498,499,500,501,502,503,504,505,506,507,508,509,510,511,512,513,514,515,516,517,518,519,520,521,522,523,524,525,526,527,528,529,530,531,532,533,534,535,536,537,538,539,540,541,542,543,544,545,546,547,548,549,550],"tree_info":[0,0,0,0,0,0,0,0,0,0,0,0,0,0,0,0,0,0,0,0,0,0,0,0,0,0,0,0,0,0,0,0,0,0,0,0,0,0,0,0,0,0,0,0,0,0,0,0,0,0,0,0,0,0,0,0,0,0,0,0,0,0,0,0,0,0,0,0,0,0,0,0,0,0,0,0,0,0,0,0,0,0,0,0,0,0,0,0,0,0,0,0,0,0,0,0,0,0,0,0,0,0,0,0,0,0,0,0,0,0,0,0,0,0,0,0,0,0,0,0,0,0,0,0,0,0,0,0,0,0,0,0,0,0,0,0,0,0,0,0,0,0,0,0,0,0,0,0,0,0,0,0,0,0,0,0,0,0,0,0,0,0,0,0,0,0,0,0,0,0,0,0,0,0,0,0,0,0,0,0,0,0,0,0,0,0,0,0,0,0,0,0,0,0,0,0,0,0,0,0,0,0,0,0,0,0,0,0,0,0,0,0,0,0,0,0,0,0,0,0,0,0,0,0,0,0,0,0,0,0,0,0,0,0,0,0,0,0,0,0,0,0,0,0,0,0,0,0,0,0,0,0,0,0,0,0,0,0,0,0,0,0,0,0,0,0,0,0,0,0,0,0,0,0,0,0,0,0,0,0,0,0,0,0,0,0,0,0,0,0,0,0,0,0,0,0,0,0,0,0,0,0,0,0,0,0,0,0,0,0,0,0,0,0,0,0,0,0,0,0,0,0,0,0,0,0,0,0,0,0,0,0,0,0,0,0,0,0,0,0,0,0,0,0,0,0,0,0,0,0,0,0,0,0,0,0,0,0,0,0,0,0,0,0,0,0,0,0,0,0,0,0,0,0,0,0,0,0,0,0,0,0,0,0,0,0,0,0,0,0,0,0,0,0,0,0,0,0,0,0,0,0,0,0,0,0,0,0,0,0,0,0,0,0,0,0,0,0,0,0,0,0,0,0,0,0,0,0,0,0,0,0,0,0,0,0,0,0,0,0,0,0,0,0,0,0,0,0,0,0,0,0,0,0,0,0,0,0,0,0,0,0,0,0,0,0,0,0,0,0,0,0,0,0,0,0,0,0,0,0,0,0,0,0,0,0,0,0,0,0,0,0,0,0,0,0,0,0,0,0,0,0,0,0,0,0,0,0,0,0,0,0,0,0,0,0,0,0,0,0,0,0,0,0,0,0,0,0,0,0,0,0,0,0,0,0,0,0,0,0,0,0,0,0,0,0,0,0,0,0],"trees":[{"base_weights":[-4.2015878E-3,-1.6346012E0,2.3307745E0,-8.412451E0,-1.3450083E0,-5.296195E0,2.521329E0,-4.080735E-1,-2.8984237E-1,-6.6094346E0,-9.9911034E-1,-1.3997477E0,-7.142965E0,-3.782642E0,2.598574E0,-3.2460332E-1,-5.122584E0,-2.7767043E0,-8.29463E-1,-3.7012954E0,5.814651E-1,-3.589153E-1,-4.646608E0,-4.5193896E0,1.0309434E0,2.0505466E0,3.0360005E0,-2.4428697E-1,-6.581092E-2,-4.714086E0,-2.3555505E0,-6.805014E-1,-2.362358E0,-2.044537E-1,1.9730778E-2,2.519659E0,-1.8606607E0,-5.243208E0,-1.1054838E-2,4.719329E-2,-5.283108E0,1.2742236E-1,-9.422297E-2,3.0672042E0,1.3269268E0,2.2934363E0,3.3601582E0,9.2422344E-2,-2.4103667E-1,-7.589382E-2,-2.8415575E0,-6.5271765E-1,-3.6012814E0,-4.802934E0,-1.0070618E0,4.8439493E-3,1.740065E-1,2.7446752E-2,-1.2303935E-1,-2.645529E-1,-6.886598E-2,1.00572385E-1,-1.3636061E0,-2.9132542E-1,-2.9594934E0,3.1399734E0,-3.074772E-1,2.4878961E-1,2.3336136E0,2.746545E0,-2.472981E0,4.147355E0,2.8795807E0,-2.908659E0,1.0668251E-1,-7.173492E-1,2.1635808E-1,-5.804368E0,-1.2710861E0,-4.9188156E0,-7.2630845E-2,-1.7527689E0,-2.2406417E-1,1.8704206E-3,-9.800655E-2,5.5354275E-2,-4.849927E0,-1.9803066E0,3.1893783E0,7.849609E-1,-4.47947E0,4.587131E0,1.7617643E0,3.459913E0,1.6169446E0,-4.9495828E-1,-3.6542752E0,2.765862E0,4.698542E0,1.1097237E0,3.0258543E0,-1.4019948E-1,-9.179588E-3,-2.6982034E-2,-1.1014719E-1,-1.0785822E-2,7.566151E-2,-3.1034043E-1,-8.179443E-2,-8.653594E-2,1.0409744E-1,-2.7877426E-1,-2.0562755E-1,-2.820049E-2,-1.6561927E-1,1.5760992E-2,-1.1119183E-1,-3.1104302E-1,5.2208416E-2,-2.1069127E-1,1.6359186E-2,1.5154399E-1,-9.0881266E-2,3.2579266E-2,2.1590687E-1,-3.196869E-1,-4.2561535E-2,3.436946E-1,1.9141974E-1,-1.0785635E-1,9.704614E-2,9.376492E-2,2.0158003E-1,-7.28649E-2,9.6737735E-2,-8.576413E-2,8.139022E-2,-9.809235E-2,-2.2087465E-1,2.082332E-1,9.7841315E-2,2.2283015E-1,-8.6021304E-2,1.6126307E-2,1.3585792E-1,1.4755759E-1,4.177838E-2],"categories":[],"categories_nodes":[],"categories_segments":[],"categories_sizes":[],"default_left":[0,0,0,0,0,0,0,0,0,0,0,0,0,0,0,0,0,0,0,0,0,0,0,0,0,0,0,0,0,0,0,0,0,0,0,0,0,0,0,0,0,0,0,0,0,0,0,0,0,0,0,0,0,0,0,0,0,0,0,0,0,0,0,0,0,0,0,0,0,0,0,0,0,0,0,0,0,0,0,0,0,0,0,0,0,0,0,0,0,0,0,0,0,0,0,0,0,0,0,0,0,0,0,0,0,0,0,0,0,0,0,0,0,0,0,0,0,0,0,0,0,0,0,0,0,0,0,0,0,0,0,0,0,0,0,0,0,0,0,0,0,0,0,0,0,0,0],"id":0,"left_children":[1,3,5,7,9,11,13,-1,-1,15,17,19,21,23,25,-1,27,29,31,33,35,-1,37,39,41,43,45,-1,-1,47,49,51,53,-1,-1,55,57,59,-1,61,63,-1,-1,65,67,69,71,-1,-1,-1,73,75,77,79,81,-1,-1,-1,-1,-1,-1,-1,83,-1,85,87,-1,89,91,93,95,97,99,101,-1,103,105,107,109,111,-1,113,115,-1,-1,-1,117,119,121,123,125,127,129,131,133,135,137,139,141,143,145,-1,-1,-1,-1,-1,-1,-1,-1,-1,-1,-1,-1,-1,-1,-1,-1,-1,-1,-1,-1,-1,-1,-1,-1,-1,-1,-1,-1,-1,-1,-1,-1,-1,-1,-1,-1,-1,-1,-1,-1,-1,-1,-1,-1,-1,-1],"loss_changes":[1.8490328E4,5.602343E3,2.9157002E3,1.734668E1,4.990095E3,3.425979E2,9.588965E2,0E0,0E0,3.922168E1,7.745259E2,7.966972E1,5.161499E0,8.9772736E1,4.554795E2,0E0,1.6452637E0,1.7166528E2,5.356825E2,2.3212868E1,5.2021366E1,0E0,1.9821518E1,7.348865E1,2.5835855E1,6.2713745E2,2.4961035E2,0E0,0E0,1.1801318E2,6.237976E1,1.7179791E2,6.831654E2,0E0,0E0,1.6764706E1,1.0783382E1,1.9468994E0,0E0,1.4726807E1,1.9933777E1,0E0,0E0,2.6947363E2,5.4534863E2,7.15176E2,2.687627E2,0E0,0E0,0E0,4.467273E1,1.19628174E2,9.5294586E1,2.0333862E1,7.843201E1,0E0,0E0,0E0,0E0,0E0,0E0,0E0,3.121059E0,0E0,6.045989E1,9.58667E1,0E0,6.220945E2,3.269735E2,2.3615161E2,6.595346E1,1.9945264E2,1.16763916E2,2.1578735E1,0E0,4.599707E2,9.231373E1,2.0960632E1,2.5936855E1,1.3144287E1,0E0,1.387512E2,8.106246E1,0E0,0E0,0E0,6.0040215E1,2.486626E1,6.898779E1,7.3735504E1,2.0132892E2,4.3126343E1,2.6163177E2,2.1367139E2,1.6810608E2,3.8690845E1,1.967479E1,8.4161865E1,6.3526855E1,4.952075E1,1.0111694E2,0E0,0E0,0E0,0E0,0E0,0E0,0E0,0E0,0E0,0E0,0E0,0E0,0E0,0E0,0E0,0E0,0E0,0E0,0E0,0E0,0E0,0E0,0E0,0E0,0E0,0E0,0E0,0E0,0E0,0E0,0E0,0E0,0E0,0E0,0E0,0E0,0E0,0E0,0E0,0E0,0E0,0E0,0E0,0E0,0E0,0E0],"parents":[2147483647,0,0,1,1,2,2,3,3,4,4,5,5,6,6,9,9,10,10,11,11,12,12,13,13,14,14,16,16,17,17,18,18,19,19,20,20,22,22,23,23,24,24,25,25,26,26,29,29,30,30,31,31,32,32,35,35,36,36,37,37,39,39,40,40,43,43,44,44,45,45,46,46,50,50,51,51,52,52,53,53,54,54,62,62,64,64,65,65,67,67,68,68,69,69,70,70,71,71,72,72,73,73,75,75,76,76,77,77,78,78,79,79,81,81,82,82,86,86,87,87,88,88,89,89,90,90,91,91,92,92,93,93,94,94,95,95,96,96,97,97,98,98,99,99,100,100],"right_children":[2,4,6,8,10,12,14,-1,-1,16,18,20,22,24,26,-1,28,30,32,34,36,-1,38,40,42,44,46,-1,-1,48,50,52,54,-1,-1,56,58,60,-1,62,64,-1,-1,66,68,70,72,-1,-1,-1,74,76,78,80,82,-1,-1,-1,-1,-1,-1,-1,84,-1,86,88,-1,90,92,94,96,98,100,102,-1,104,106,108,110,112,-1,114,116,-1,-1,-1,118,120,122,124,126,128,130,132,134,136,138,140,142,144,146,-1,-1,-1,-1,-1,-1,-1,-1,-1,-1,-1,-1,-1,-1,-1,-1,-1,-1,-1,-1,-1,-1,-1,-1,-1,-1,-1,-1,-1,-1,-1,-1,-1,-1,-1,-1,-1,-1,-1,-1,-1,-1,-1,-1,-1,-1],"split_conditions":[1.1E1,1E0,8E0,6E0,1E0,5.7E1,1.3E1,-4.080735E-1,-2.8984237E-1,1.9E1,5E0,5E0,1E0,4E0,1E0,-3.2460332E-1,5E0,2E0,3.4E1,2E0,6E0,-3.589153E-1,2.35E2,1E0,5.17E2,1.2E2,1E2,-2.4428697E-1,-6.581092E-2,2E0,3E0,5E0,5E0,-2.044537E-1,1.9730778E-2,4.2E1,3.6E1,1E0,-1.1054838E-2,4.7E1,4E0,1.2742236E-1,-9.422297E-2,1E0,1.21E2,7E0,4.91E2,9.2422344E-2,-2.4103667E-1,-7.589382E-2,1E0,6E0,7E0,1E1,1E1,4.8439493E-3,1.740065E-1,2.7446752E-2,-1.2303935E-1,-2.645529E-1,-6.886598E-2,1.00572385E-1,2E0,-2.9132542E-1,1.2E2,1E1,-3.074772E-1,3.7E1,5.15E2,3E0,1.46E2,4.39E2,5E0,1E0,1.0668251E-1,1.2E1,1E0,3E1,7E0,1.3E1,-7.2630845E-2,2.5E1,4E0,1.8704206E-3,-9.800655E-2,5.5354275E-2,1.14E2,5.1E1,6.1E1,1E0,1.7E2,1.48E2,1.59E2,2.5E1,1.8E1,1.26E2,8E1,3.1E1,1E0,1E3,5.1E3,-1.4019948E-1,-9.179588E-3,-2.6982034E-2,-1.1014719E-1,-1.0785822E-2,7.566151E-2,-3.1034043E-1,-8.179443E-2,-8.653594E-2,1.0409744E-1,-2.7877426E-1,-2.0562755E-1,-2.820049E-2,-1.6561927E-1,1.5760992E-2,-1.1119183E-1,-3.1104302E-1,5.2208416E-2,-2.1069127E-1,1.6359186E-2,1.5154399E-1,-9.0881266E-2,3.2579266E-2,2.1590687E-1,-3.196869E-1,-4.2561535E-2,3.436946E-1,1.9141974E-1,-1.0785635E-1,9.704614E-2,9.376492E-2,2.0158003E-1,-7.28649E-2,9.6737735E-2,-8.576413E-2,8.139022E-2,-9.809235E-2,-2.2087465E-1,2.082332E-1,9.7841315E-2,2.2283015E-1,-8.6021304E-2,1.6126307E-2,1.3585792E-1,1.4755759E-1,4.177838E-2],"split_indices":[3,73,73,3,10,1,10,0,0,47,1,73,73,47,47,0,32,10,1,47,73,0,1,9,1,1,73,0,0,9,10,9,73,0,0,1,1,9,0,1,10,0,0,8,3,47,1,0,0,0,32,3,10,3,73,0,0,0,0,0,0,0,10,0,1,73,0,9,1,47,3,1,9,27,0,1,9,1,9,10,0,10,9,0,0,0,3,1,10,8,10,10,10,3,3,10,73,9,4,73,10,0,0,0,0,0,0,0,0,0,0,0,0,0,0,0,0,0,0,0,0,0,0,0,0,0,0,0,0,0,0,0,0,0,0,0,0,0,0,0,0,0,0,0,0,0,0],"split_type":[0,0,0,0,0,0,0,0,0,0,0,0,0,0,0,0,0,0,0,0,0,0,0,0,0,0,0,0,0,0,0,0,0,0,0,0,0,0,0,0,0,0,0,0,0,0,0,0,0,0,0,0,0,0,0,0,0,0,0,0,0,0,0,0,0,0,0,0,0,0,0,0,0,0,0,0,0,0,0,0,0,0,0,0,0,0,0,0,0,0,0,0,0,0,0,0,0,0,0,0,0,0,0,0,0,0,0,0,0,0,0,0,0,0,0,0,0,0,0,0,0,0,0,0,0,0,0,0,0,0,0,0,0,0,0,0,0,0,0,0,0,0,0,0,0,0,0],"sum_hessian":[4.855E3,2.859E3,1.996E3,1.16E2,2.743E3,4.8E1,1.948E3,1.01E2,1.5E1,1.68E2,2.575E3,1.6E1,3.2E1,2.3E1,1.925E3,1.37E2,3.1E1,2.23E2,2.352E3,7E0,9E0,2.5E1,7E0,2E1,3E0,8.57E2,1.068E3,3E1,1E0,3.8E1,1.85E2,2.145E3,2.07E2,6E0,1E0,5E0,4E0,6E0,1E0,3E0,1.7E1,2E0,1E0,3.55E2,5.02E2,3.27E2,7.41E2,2E0,3.6E1,7.5E1,1.1E2,2.126E3,1.9E1,7.3E1,1.34E2,2E0,3E0,1E0,3E0,5E0,1E0,1E0,2E0,1.1E1,6E0,3.53E2,2E0,2.43E2,2.59E2,2.99E2,2.8E1,2.78E2,4.63E2,1.09E2,1E0,1.979E3,1.47E2,9E0,1E1,7E1,3E0,6.8E1,6.6E1,1E0,1E0,2E0,4E0,3E0,3.5E2,2.19E2,2.4E1,5.1E1,2.08E2,1.82E2,1.17E2,1.1E1,1.7E1,8.1E1,1.97E2,3.6E1,4.27E2,1.06E2,3E0,1.82E3,1.59E2,1.12E2,3.5E1,7E0,2E0,9E0,1E0,2.1E1,4.9E1,4.2E1,2.6E1,5.3E1,1.3E1,3E0,1E0,1E0,2E0,3.48E2,2E0,2.15E2,4E0,1.4E1,1E1,6E0,4.5E1,1.4E1,1.94E2,6.7E1,1.15E2,1.4E1,1.03E2,7E0,4E0,8E0,9E0,2.2E1,5.9E1,1.96E2,1E0,2.6E1,1E1,4.05E2,2.2E1],"tree_param":{"num_deleted":"0","num_feature":"77","num_nodes":"147","size_leaf_vector":"1"}},{"base_weights":[-4.985408E-5,-1.5621451E0,2.029783E0,-6.4449687E0,-1.1845967E0,2.3549614E0,-2.5841033E0,-6.53714E0,-3.4618042E0,-8.867439E-1,-4.760392E0,2.509054E0,-3.854597E0,-3.8445454E0,-2.0718129E0,-6.05043E0,-3.3683237E-1,1.1200719E-1,-2.1795405E-1,-6.959652E-1,-4.1057367E0,-3.6489722E-1,-3.3020191E0,-2.294159E0,2.6177535E0,-2.663405E0,-3.5810977E-1,-4.544557E0,1.8244448E0,-1.126159E0,-3.82287E0,-2.857673E-1,-6.426432E-2,-5.757767E-1,-2.588214E0,-2.9469445E0,-7.081801E0,-2.2102282E0,-6.678915E0,-2.7617416E0,-1.2372221E0,2.732013E0,1.0865825E0,-4.527179E-1,-3.237831E0,-3.1114938E0,-2.844426E-1,-1.619533E-1,1.8816489E-1,-2.3737748E0,5.905023E-1,-4.3533745E0,6.471479E-2,-2.6148548E0,-4.5973387E-1,-3.8723729E0,3.564411E-1,-1.9006883E0,-4.886746E0,-2.8291434E-1,-4.091487E-1,-2.7932312E0,-1.9908303E-1,-4.945591E0,-3.5117352E-1,-3.04038E0,-2.6015687E-1,9.887182E-2,-2.2477324E0,2.367362E0,3.0350602E0,-4.534153E-1,2.2630265E0,1.2575579E0,-2.0724502E0,-4.7896276E0,-1.3667258E0,-2.5288785E-1,1.8709906E0,-1.0856712E0,-5.5538864E0,1.0792171E0,-1.8822764E-1,-3.3654597E-1,-3.5683522E0,-2.7964969E0,-8.6812896E-1,-4.1889867E-1,-1.691104E0,-4.7350187E0,-2.779241E0,-5.3510326E-1,1.4916867E-1,-1.7732018E0,-2.3341449E-1,-2.5349188E0,-5.6630597E0,-2.3428416E0,-6.0359454E0,2.2209115E0,-1.7991406E0,-2.4324898E-1,-5.1413808E-2,-3.222809E0,-2.667239E-2,7.983602E-3,-3.643063E-2,-1.5761839E-1,-1.5065246E0,2.6512604E0,1.4400523E0,4.1894455E0,2.6009092E0,2.131448E0,-1.0363337E0,3.70941E0,1.8702595E0,-6.862626E-2,1.0819611E-1,-1.3340567E-1,-2.8939445E-2,-2.3254126E-1,-5.687603E-2,1.0074046E0,-2.321628E0,1.2329849E-1,-6.2111445E-2,-1.5722402E0,1.7180441E-1,-1.9476969E0,-3.44814E-1,1.8791358E0,-7.727607E-2,-2.3491704E-1,-1.8836858E0,-2.0066845E-1,-1.18930385E-1,8.952638E-2,-7.5821355E-2,-2.3281582E-2,2.5579568E-2,-1.0659563E-1,-4.1786253E-2,-2.9596728E-1,-1.680054E-1,-2.3821173E-2,-1.8136688E-1,2.100753E-2,-1.0383078E-1,-1.6066527E-1,-7.238416E-2,-1.6215909E-1,-1.408043E-2,-3.0260962E-1,-1.3444062E-1,-2.9567188E-1,-9.1578566E-2,-3.12579E-1,-2.6311664E-2,4.33129E-2,1.2437106E-1,-6.1311744E-2,-1.5712215E-1,-1.8033709E-1,-8.33341E-2,-8.58627E-3,-1.004879E-1,9.2605315E-2,1.486726E-1,7.407447E-2,-1.0905578E-1,1.4092414E-1,2.1243846E-1,1.353017E-1,1.0273613E-1,6.548709E-2,1.7086554E-1,-1.6611813E-1,-3.5317327E-4,1.8102989E-1,4.0383577E-2,7.322548E-2,2.1025214E-1,9.86264E-2,-1.9711496E-2,-5.6115896E-2,-1.43935E-1,-1.1470473E-1,5.9083868E-2,2.3683567E-2,-1.2627123E-1,4.6093952E-2,2.0347917E-1,3.449945E-2,-2.1153927E-1,-1.3851787E-1,-1.8763822E-2],"categories":[],"categories_nodes":[],"categories_segments":[],"categories_sizes":[],"default_left":[0,0,0,0,0,0,0,0,0,0,0,0,0,0,0,0,0,0,0,0,0,0,0,0,0,0,0,0,0,0,0,0,0,0,0,0,0,0,0,0,0,0,0,0,0,0,0,0,0,0,0,0,0,0,0,0,0,0,0,0,0,0,0,0,0,0,0,0,0,0,0,0,0,0,0,0,0,0,0,0,0,0,0,0,0,0,0,0,0,0,0,0,0,0,0,0,0,0,0,0,0,0,0,0,0,0,0,0,0,0,0,0,0,0,0,0,0,0,0,0,0,0,0,0,0,0,0,0,0,0,0,0,0,0,0,0,0,0,0,0,0,0,0,0,0,0,0,0,0,0,0,0,0,0,0,0,0,0,0,0,0,0,0,0,0,0,0,0,0,0,0,0,0,0,0,0,0,0,0,0,0,0,0,0,0,0,0,0,0,0,0,0,0,0,0,0,0],"id":1,"left_children":[1,3,5,7,9,11,13,15,17,19,21,23,25,27,29,31,-1,-1,-1,33,35,-1,37,39,41,43,-1,45,47,49,51,-1,-1,53,55,57,59,61,63,65,67,69,71,73,75,77,-1,-1,-1,79,81,83,-1,85,87,89,91,93,95,-1,-1,97,99,101,-1,103,105,-1,107,109,111,113,115,117,119,121,123,-1,125,127,129,131,-1,-1,133,135,137,139,141,143,145,147,-1,149,-1,151,153,155,157,159,161,-1,-1,163,-1,-1,-1,-1,165,167,169,171,173,175,177,179,181,-1,-1,-1,-1,-1,-1,183,185,-1,-1,187,-1,189,-1,191,193,-1,195,-1,-1,-1,-1,-1,-1,-1,-1,-1,-1,-1,-1,-1,-1,-1,-1,-1,-1,-1,-1,-1,-1,-1,-1,-1,-1,-1,-1,-1,-1,-1,-1,-1,-1,-1,-1,-1,-1,-1,-1,-1,-1,-1,-1,-1,-1,-1,-1,-1,-1,-1,-1,-1,-1,-1,-1,-1,-1,-1,-1,-1,-1],"loss_changes":[1.5340294E4,5.0325E3,3.162791E3,3.1262207E1,2.6999678E3,1.890834E3,8.178888E1,1.4533691E1,6.601272E1,1.4372428E3,8.284297E2,1.0079297E3,1.9495691E2,1.6305731E2,1.629401E2,7.3535156E0,0E0,0E0,0E0,5.0225952E2,4.309021E2,0E0,4.7559106E2,1.7833939E1,3.2541406E2,4.678946E1,0E0,5.67713E1,7.1213135E1,1.4489789E2,1.0254135E2,0E0,0E0,4.9191473E2,5.0052588E2,1.8554669E2,9.690918E0,1.1903937E2,7.017456E0,1.9423096E1,5.5367607E1,1.8575879E2,2.4017326E2,2.7537924E1,8.056116E1,2.3617125E2,0E0,0E0,0E0,1.5372652E2,6.944947E1,4.496393E1,0E0,3.3107605E1,9.85004E1,7.359485E1,1.0467987E2,1.6205643E1,4.589447E1,0E0,0E0,1.0123706E2,9.6926865E1,5.8461304E0,0E0,9.900452E0,1.0174055E0,0E0,4.7832336E0,2.0600195E2,4.6522266E2,8.960123E1,3.566928E1,1.7553358E1,3.8309975E0,3.059723E0,3.634476E1,0E0,2.0279312E1,7.264514E1,5.641693E1,2.512293E1,0E0,0E0,5.562024E1,2.878595E1,2.7864548E1,1.4096924E2,2.7131165E1,6.812854E1,1.0353165E2,5.359514E1,0E0,1.889946E1,0E0,1.9424408E1,3.3734863E1,9.829416E1,2.6564728E1,3.0868301E0,7.094185E0,0E0,0E0,1.4563614E1,0E0,0E0,0E0,0E0,7.1331615E0,2.0606885E2,1.0029068E2,8.799219E1,7.361426E1,7.145794E0,1.2333424E2,2.7707214E0,4.2620743E1,0E0,0E0,0E0,0E0,0E0,0E0,8.66309E0,5.5325775E0,0E0,0E0,6.939396E1,0E0,1.0410816E1,0E0,3.0974617E1,4.6368366E1,0E0,2.0924469E1,0E0,0E0,0E0,0E0,0E0,0E0,0E0,0E0,0E0,0E0,0E0,0E0,0E0,0E0,0E0,0E0,0E0,0E0,0E0,0E0,0E0,0E0,0E0,0E0,0E0,0E0,0E0,0E0,0E0,0E0,0E0,0E0,0E0,0E0,0E0,0E0,0E0,0E0,0E0,0E0,0E0,0E0,0E0,0E0,0E0,0E0,0E0,0E0,0E0,0E0,0E0,0E0,0E0,0E0,0E0,0E0,0E0,0E0,0E0,0E0,0E0,0E0],"parents":[2147483647,0,0,1,1,2,2,3,3,4,4,5,5,6,6,7,7,8,8,9,9,10,10,11,11,12,12,13,13,14,14,15,15,19,19,20,20,22,22,23,23,24,24,25,25,27,27,28,28,29,29,30,30,33,33,34,34,35,35,36,36,37,37,38,38,39,39,40,40,41,41,42,42,43,43,44,44,45,45,49,49,50,50,51,51,53,53,54,54,55,55,56,56,57,57,58,58,61,61,62,62,63,63,65,65,66,66,68,68,69,69,70,70,71,71,72,72,73,73,74,74,75,75,76,76,78,78,79,79,80,80,81,81,84,84,85,85,86,86,87,87,88,88,89,89,90,90,91,91,93,93,95,95,96,96,97,97,98,98,99,99,100,100,103,103,108,108,109,109,110,110,111,111,112,112,113,113,114,114,115,115,116,116,123,123,124,124,127,127,129,129,131,131,132,132,134,134],"right_children":[2,4,6,8,10,12,14,16,18,20,22,24,26,28,30,32,-1,-1,-1,34,36,-1,38,40,42,44,-1,46,48,50,52,-1,-1,54,56,58,60,62,64,66,68,70,72,74,76,78,-1,-1,-1,80,82,84,-1,86,88,90,92,94,96,-1,-1,98,100,102,-1,104,106,-1,108,110,112,114,116,118,120,122,124,-1,126,128,130,132,-1,-1,134,136,138,140,142,144,146,148,-1,150,-1,152,154,156,158,160,162,-1,-1,164,-1,-1,-1,-1,166,168,170,172,174,176,178,180,182,-1,-1,-1,-1,-1,-1,184,186,-1,-1,188,-1,190,-1,192,194,-1,196,-1,-1,-1,-1,-1,-1,-1,-1,-1,-1,-1,-1,-1,-1,-1,-1,-1,-1,-1,-1,-1,-1,-1,-1,-1,-1,-1,-1,-1,-1,-1,-1,-1,-1,-1,-1,-1,-1,-1,-1,-1,-1,-1,-1,-1,-1,-1,-1,-1,-1,-1,-1,-1,-1,-1,-1,-1,-1,-1,-1,-1,-1],"split_conditions":[2.1E1,1E0,1E0,1.7E2,1E0,1.7700002E0,1.2000002E0,6E0,1.2000002E0,1.8000002E0,1E1,2.6E1,1.9600002E0,3E1,2.61E2,5E0,-3.3683237E-1,1.1200719E-1,-2.1795405E-1,7E0,1.9800003E0,-3.6489722E-1,4E0,1.2000002E0,1.6400002E0,5.2E1,-3.5810977E-1,9E0,2.53E2,1.1E2,1.26E2,-2.857673E-1,-6.426432E-2,5E0,1.6E1,1E1,2E0,2.6E1,1.2800001E0,1E0,1.7100002E0,4.15E2,1.26E2,8.5E1,3.41E2,4E0,-2.844426E-1,-1.619533E-1,1.8816489E-1,1.4000001E0,9.6E1,2.79E2,6.471479E-2,1.7400001E0,1.6410002E0,1.5200002E0,7.5E1,1E0,1.8660002E0,-2.8291434E-1,-4.091487E-1,3E0,2.8E1,1.2700001E0,-3.5117352E-1,1E0,9E0,9.887182E-2,3.6E1,1.2E2,4.91E2,5.9E1,1.84E2,3.1E1,1.03E2,2.8E2,4.87E2,-2.5288785E-1,1.05E2,1.9E1,2E0,2.5E1,-1.8822764E-1,-3.3654597E-1,2.5E1,2E0,2E0,2.1E1,4E0,3.9E1,1.3E1,1.5E1,1.4916867E-1,2E0,-2.3341449E-1,1.8300002E0,1.9600002E0,6E0,1.3000002E0,1.2000002E0,1.3000002E0,-2.4324898E-1,-5.1413808E-2,5E0,-2.667239E-2,7.983602E-3,-3.643063E-2,-1.5761839E-1,1.23E2,5.1E1,8.3E1,8.5E1,5.32E2,4.7E1,4E1,1.7500002E0,1.904E3,-6.862626E-2,1.0819611E-1,-1.3340567E-1,-2.8939445E-2,-2.3254126E-1,-5.687603E-2,1.8000002E0,5.43E2,1.2329849E-1,-6.2111445E-2,1.3500001E0,1.7180441E-1,9E0,-3.44814E-1,1.2E1,1.4000001E0,-2.3491704E-1,1.2800001E0,-2.0066845E-1,-1.18930385E-1,8.952638E-2,-7.5821355E-2,-2.3281582E-2,2.5579568E-2,-1.0659563E-1,-4.1786253E-2,-2.9596728E-1,-1.680054E-1,-2.3821173E-2,-1.8136688E-1,2.100753E-2,-1.0383078E-1,-1.6066527E-1,-7.238416E-2,-1.6215909E-1,-1.408043E-2,-3.0260962E-1,-1.3444062E-1,-2.9567188E-1,-9.1578566E-2,-3.12579E-1,-2.6311664E-2,4.33129E-2,1.2437106E-1,-6.1311744E-2,-1.5712215E-1,-1.8033709E-1,-8.33341E-2,-8.58627E-3,-1.004879E-1,9.2605315E-2,1.486726E-1,7.407447E-2,-1.0905578E-1,1.4092414E-1,2.1243846E-1,1.353017E-1,1.0273613E-1,6.548709E-2,1.7086554E-1,-1.6611813E-1,-3.5317327E-4,1.8102989E-1,4.0383577E-2,7.322548E-2,2.1025214E-1,9.86264E-2,-1.9711496E-2,-5.6115896E-2,-1.43935E-1,-1.1470473E-1,5.9083868E-2,2.3683567E-2,-1.2627123E-1,4.6093952E-2,2.0347917E-1,3.449945E-2,-2.1153927E-1,-1.3851787E-1,-1.8763822E-2],"split_indices":[10,10,44,1,44,0,0,1,0,0,1,1,0,44,10,32,0,0,0,2,0,0,44,0,0,10,0,44,1,1,44,0,0,1,10,1,10,1,0,54,0,1,10,1,1,44,0,0,0,0,2,10,0,0,0,0,1,41,0,0,0,44,1,0,0,27,54,0,10,1,1,1,10,10,1,10,1,0,1,2,44,44,0,0,44,10,10,1,10,1,10,2,0,10,0,0,0,10,0,0,0,0,0,1,0,0,0,0,10,10,2,2,1,1,10,0,10,0,0,0,0,0,0,0,1,0,0,0,0,2,0,44,0,0,0,0,0,0,0,0,0,0,0,0,0,0,0,0,0,0,0,0,0,0,0,0,0,0,0,0,0,0,0,0,0,0,0,0,0,0,0,0,0,0,0,0,0,0,0,0,0,0,0,0,0,0,0,0,0,0,0,0,0,0,0,0,0],"split_type":[0,0,0,0,0,0,0,0,0,0,0,0,0,0,0,0,0,0,0,0,0,0,0,0,0,0,0,0,0,0,0,0,0,0,0,0,0,0,0,0,0,0,0,0,0,0,0,0,0,0,0,0,0,0,0,0,0,0,0,0,0,0,0,0,0,0,0,0,0,0,0,0,0,0,0,0,0,0,0,0,0,0,0,0,0,0,0,0,0,0,0,0,0,0,0,0,0,0,0,0,0,0,0,0,0,0,0,0,0,0,0,0,0,0,0,0,0,0,0,0,0,0,0,0,0,0,0,0,0,0,0,0,0,0,0,0,0,0,0,0,0,0,0,0,0,0,0,0,0,0,0,0,0,0,0,0,0,0,0,0,0,0,0,0,0,0,0,0,0,0,0,0,0,0,0,0,0,0,0,0,0,0,0,0,0,0,0,0,0,0,0,0,0,0,0,0,0],"sum_hessian":[4.836E3,2.733E3,2.103E3,1.95E2,2.538E3,1.965E3,1.38E2,1.88E2,7E0,2.344E3,1.94E2,1.918E3,4.7E1,3.8E1,1E2,1.12E2,7.6E1,1E0,6E0,2.214E3,1.3E2,6.2E1,1.32E2,4.2E1,1.876E3,3.7E1,1E1,3.4E1,4E0,6.6E1,3.4E1,1.11E2,1E0,2.083E3,1.31E2,9.5E1,3.5E1,1.01E2,3.1E1,2.8E1,1.4E1,1.745E3,1.31E2,8E0,2.9E1,1.9E1,1.5E1,1E0,3E0,3.8E1,2.8E1,3.1E1,3E0,1.11E2,1.972E3,9.1E1,4E1,6.3E1,3.2E1,2.4E1,1.1E1,7.8E1,2.3E1,1.2E1,1.9E1,2.5E1,3E0,3E0,1.1E1,7.96E2,9.49E2,5.7E1,7.4E1,4E0,4E0,1.5E1,1.4E1,1.3E1,6E0,2.8E1,1E1,2.6E1,2E0,5E0,2.6E1,1E2,1.1E1,1.91E3,6.2E1,4.9E1,4.2E1,3.1E1,9E0,6.2E1,1E0,9E0,2.3E1,7E1,8E0,9E0,1.4E1,1.1E1,1E0,2.3E1,2E0,2E0,1E0,3E0,8E0,6.08E2,1.88E2,2.57E2,6.92E2,1E1,4.7E1,1.4E1,6E1,1E0,3E0,2E0,2E0,1.4E1,1E0,4E0,1E1,5E0,1E0,2.6E1,2E0,4E0,6E0,1.5E1,1.1E1,1.3E1,1.3E1,1.3E1,8.7E1,2E0,9E0,1.77E3,1.4E2,3.5E1,2.7E1,1.9E1,3E1,1.4E1,2.8E1,2E1,1.1E1,6E0,5.6E1,6E0,3E0,1.7E1,6E0,5E0,6.5E1,7E0,1E0,3E0,6E0,1.2E1,2E0,1.5E1,8E0,3E0,5E0,2.63E2,3.45E2,1.82E2,6E0,5.8E1,1.99E2,4.11E2,2.81E2,8E0,2E0,1.3E1,3.4E1,1.3E1,1E0,5.5E1,5E0,2E0,2E0,5E0,5E0,2E1,6E0,1E0,3E0,1.2E1,3E0,1E1,1E0,7E0,6E0],"tree_param":{"num_deleted":"0","num_feature":"77","num_nodes":"197","size_leaf_vector":"1"}},{"base_weights":[-1.4105799E-2,-1.5107766E0,1.9261086E0,-6.1432476E0,-1.1506082E0,2.0556316E0,-3.561094E0,-3.0495435E-1,-4.3609433E0,-9.785652E-1,-4.1819954E0,8.035443E-1,2.5199437E0,-2.4170108E0,-3.4280843E-1,1.0937497E-1,-4.626094E0,-2.134347E0,-6.278549E-1,-5.8531127E0,-2.6596189E0,1.0174707E0,-2.505159E-1,2.179795E0,3.151291E0,-3.6672575E0,-1.2842176E0,-4.6865706E0,-6.1814558E-2,-1.9009889E0,-6.1858587E0,-5.1746744E-1,-2.1690724E0,-5.000857E0,-3.805819E-1,-1.3790504E0,-2.530297E-1,1.222513E0,-8.165845E-1,2.3247528E0,8.2075876E-1,1.9217954E0,3.6166077E0,-4.1438956E0,-7.516478E-2,-1.8898497E0,6.457763E-1,-2.2323456E-1,-6.275408E-2,-2.236714E0,-5.684648E-1,-3.013415E-1,8.335325E-3,-5.0847894E-1,-4.2531576E0,-2.7752097E0,-1.0567629E0,-3.5946202E0,-5.771652E0,-1.5684689E0,3.183347E-2,8.381763E-1,2.282624E0,-1.5906638E0,2.4243386E0,2.346768E0,-2.3171057E-1,-6.5657926E-1,1.9819584E0,2.428013E0,-1.1651352E-1,3.912635E0,1.7625043E0,-1.5358555E0,-4.715556E0,1.1899912E0,-2.634815E0,1.0411082E-1,-6.926458E-1,-2.780286E0,-1.1863729E0,-3.4851754E-1,-5.0296755E0,-5.440881E-1,1.0007087E0,-2.4987906E-1,-2.4986073E-2,-4.995708E0,-2.2621462E0,-1.794895E0,1.3879085E0,-2.9379132E-1,-2.5399141E0,-3.0145913E-1,-1.2902449E-1,-1.7697765E0,-1.6531508E-1,1.2464106E0,-2.0380895E0,2.6817071E0,-2.7346354E0,-2.3713963E0,5.135542E-1,1.3516867E-1,9.1518617E-1,2.3656995E0,-1.1303273E-1,-1.1911469E0,2.2627895E0,2.9918952E0,1.299881E0,2.2404432E0,4.210967E0,-3.2336432E-1,1.5113733E0,2.6883955E0,4.023122E0,2.1824877E0,-1.9611111E0,-2.8032664E-2,-1.0232427E-1,-2.4176273E-1,-8.7375335E-2,8.7920174E-2,-2.0018881E-2,-1.1101843E0,-1.7106058E-1,-4.2541757E-2,-1.2973512E-3,-1.3648991E-1,-1.9639794E-2,-9.926834E-2,2.020193E-2,-8.325728E-3,-1.742029E-1,-9.70406E-2,-2.9695842E-1,-2.3129638E-2,-9.605041E-2,2.9614458E-2,1.6304982E-1,-2.5529847E-1,1.5819786E-2,-5.3315762E-2,-1.6815443E-1,1.1543078E-1,-1.0669949E-1,7.8525886E-2,-3.3848006E-2,-5.2845076E-2,-1.448166E-1,-7.179336E-2,-1.5081443E-1,-5.6947637E-2,2.3290636E-2,4.0235545E-2,9.288728E-2,-1.5749331E-1,-2.9926006E-2,1.2998016E-1,-1.7125717E-1,-1.730263E-1,-7.002873E-2,-8.2621396E-2,-2.067615E-1,1.2457378E-1,-5.420686E-2,6.2037263E-2,-7.026701E-3,1.17214166E-1,8.642769E-2,2.0062773E-1,-6.868613E-2,1.2776887E-1,-1.1070414E-2,5.9174933E-2,1.5090883E-1,3.4460686E-2,1.4335153E-1,1.16217114E-1,-1.3278025E-2,2.273793E-1,-3.361015E-2,1.703901E-1,-7.090481E-2,3.6009975E-2,1.3152437E-1,1.9028409E-1,8.687615E-3,5.7418518E-2,1.4032015E-1,-1.0210239E-1,-2.1266142E-2,-8.6504295E-2,7.688397E-2],"categories":[],"categories_nodes":[],"categories_segments":[],"categories_sizes":[],"default_left":[0,0,0,0,0,0,0,0,0,0,0,0,0,0,0,0,0,0,0,0,0,0,0,0,0,0,0,0,0,0,0,0,0,0,0,0,0,0,0,0,0,0,0,0,0,0,0,0,0,0,0,0,0,0,0,0,0,0,0,0,0,0,0,0,0,0,0,0,0,0,0,0,0,0,0,0,0,0,0,0,0,0,0,0,0,0,0,0,0,0,0,0,0,0,0,0,0,0,0,0,0,0,0,0,0,0,0,0,0,0,0,0,0,0,0,0,0,0,0,0,0,0,0,0,0,0,0,0,0,0,0,0,0,0,0,0,0,0,0,0,0,0,0,0,0,0,0,0,0,0,0,0,0,0,0,0,0,0,0,0,0,0,0,0,0,0,0,0,0,0,0,0,0,0,0,0,0,0,0,0,0,0,0,0,0,0,0,0,0,0,0,0,0,0,0],"id":2,"left_children":[1,3,5,7,9,11,13,-1,15,17,19,21,23,25,-1,-1,27,29,31,33,35,37,-1,39,41,43,45,47,-1,49,51,53,55,57,-1,59,-1,61,63,65,67,69,71,73,-1,75,77,-1,-1,79,81,-1,-1,83,85,87,89,91,93,95,-1,97,99,101,103,105,-1,107,109,111,113,115,117,119,121,123,125,-1,127,129,131,133,135,137,139,-1,-1,141,143,145,147,-1,149,-1,-1,151,153,155,157,159,161,163,165,-1,167,169,-1,171,173,175,177,179,181,-1,183,185,187,189,191,-1,-1,-1,-1,-1,-1,193,-1,-1,-1,-1,-1,-1,-1,-1,-1,-1,-1,-1,-1,-1,-1,-1,-1,-1,-1,-1,-1,-1,-1,-1,-1,-1,-1,-1,-1,-1,-1,-1,-1,-1,-1,-1,-1,-1,-1,-1,-1,-1,-1,-1,-1,-1,-1,-1,-1,-1,-1,-1,-1,-1,-1,-1,-1,-1,-1,-1,-1,-1,-1,-1,-1,-1,-1,-1,-1],"loss_changes":[1.4063411E4,4.554529E3,1.5062251E3,9.284424E1,1.3195481E3,1.1961572E3,1.9161865E2,0E0,7.283191E1,9.727029E2,3.304265E2,7.389048E2,3.1590332E2,5.052504E1,0E0,0E0,6.442871E-1,5.167488E2,3.1276935E2,8.191577E1,2.4720886E2,2.044461E2,0E0,1.9115479E2,2.92833E2,1.1115707E1,2.6935478E1,6.268921E-1,0E0,2.3583008E2,4.4190918E1,5.569272E1,7.999536E1,3.2365234E1,0E0,2.0927315E1,0E0,1.9650977E2,1.4183655E2,1.5291357E2,1.6598782E2,1.5092981E2,2.0112354E2,1.3630371E1,0E0,4.2139763E1,1.4136613E1,0E0,0E0,2.3820752E2,1.0422004E2,0E0,0E0,9.297885E1,1.3002426E1,7.870026E1,8.369322E1,4.0152466E1,4.0705566E1,1.2983299E1,0E0,4.2407455E2,2.656306E2,7.514525E1,4.8638153E0,8.512207E1,0E0,6.980112E1,3.330905E1,2.9693726E1,3.4070178E2,3.3279785E1,8.872836E1,1.1110306E0,3.8934784E0,5.1959987E0,1.7404617E1,0E0,5.4024994E-1,8.002539E1,2.193346E2,5.91915E1,6.0568542E0,1.3001251E2,3.440788E1,0E0,0E0,3.4381622E1,9.386258E1,7.6284225E1,7.761467E0,0E0,8.794144E0,0E0,0E0,9.393219E0,5.440601E0,8.805432E1,8.0652145E1,7.36651E1,6.298538E0,3.3320663E1,4.9361916E1,0E0,1.9209712E0,5.4837402E1,0E0,6.0827538E1,8.608711E0,3.9223022E0,3.1483559E1,6.3971436E1,3.43358E1,0E0,1.6506438E2,4.195984E0,2.8202148E1,3.4158493E1,9.291935E-1,0E0,0E0,0E0,0E0,0E0,0E0,1.7048317E1,0E0,0E0,0E0,0E0,0E0,0E0,0E0,0E0,0E0,0E0,0E0,0E0,0E0,0E0,0E0,0E0,0E0,0E0,0E0,0E0,0E0,0E0,0E0,0E0,0E0,0E0,0E0,0E0,0E0,0E0,0E0,0E0,0E0,0E0,0E0,0E0,0E0,0E0,0E0,0E0,0E0,0E0,0E0,0E0,0E0,0E0,0E0,0E0,0E0,0E0,0E0,0E0,0E0,0E0,0E0,0E0,0E0,0E0,0E0,0E0,0E0,0E0,0E0,0E0,0E0,0E0,0E0,0E0,0E0],"parents":[2147483647,0,0,1,1,2,2,3,3,4,4,5,5,6,6,8,8,9,9,10,10,11,11,12,12,13,13,16,16,17,17,18,18,19,19,20,20,21,21,23,23,24,24,25,25,26,26,27,27,29,29,30,30,31,31,32,32,33,33,35,35,37,37,38,38,39,39,40,40,41,41,42,42,43,43,45,45,46,46,49,49,50,50,53,53,54,54,55,55,56,56,57,57,58,58,59,59,61,61,62,62,63,63,64,64,65,65,67,67,68,68,69,69,70,70,71,71,72,72,73,73,74,74,75,75,76,76,78,78,79,79,80,80,81,81,82,82,83,83,84,84,87,87,88,88,89,89,90,90,92,92,95,95,96,96,97,97,98,98,99,99,100,100,101,101,102,102,104,104,105,105,107,107,108,108,109,109,110,110,111,111,112,112,114,114,115,115,116,116,117,117,118,118,125,125],"right_children":[2,4,6,8,10,12,14,-1,16,18,20,22,24,26,-1,-1,28,30,32,34,36,38,-1,40,42,44,46,48,-1,50,52,54,56,58,-1,60,-1,62,64,66,68,70,72,74,-1,76,78,-1,-1,80,82,-1,-1,84,86,88,90,92,94,96,-1,98,100,102,104,106,-1,108,110,112,114,116,118,120,122,124,126,-1,128,130,132,134,136,138,140,-1,-1,142,144,146,148,-1,150,-1,-1,152,154,156,158,160,162,164,166,-1,168,170,-1,172,174,176,178,180,182,-1,184,186,188,190,192,-1,-1,-1,-1,-1,-1,194,-1,-1,-1,-1,-1,-1,-1,-1,-1,-1,-1,-1,-1,-1,-1,-1,-1,-1,-1,-1,-1,-1,-1,-1,-1,-1,-1,-1,-1,-1,-1,-1,-1,-1,-1,-1,-1,-1,-1,-1,-1,-1,-1,-1,-1,-1,-1,-1,-1,-1,-1,-1,-1,-1,-1,-1,-1,-1,-1,-1,-1,-1,-1,-1,-1,-1,-1,-1,-1],"split_conditions":[2E1,1E0,1.7900002E0,5E0,1.8000002E0,1E0,1.9600002E0,-3.0495435E-1,6E0,1.4500002E0,1E0,1E0,2.51E2,4E0,-3.4280843E-1,1.0937497E-1,1E0,1.3600001E0,1.6400002E0,1.9800003E0,1.9600002E0,1.7E1,-2.505159E-1,1.6500002E0,1E0,1.5E2,5.2E1,5E0,-6.1814558E-2,1.4E1,1.4E1,1.8E1,1E0,4E0,-3.805819E-1,1.9300002E0,-2.530297E-1,1.5090002E0,3.03E3,1E0,1E0,1.2000002E0,5.25E2,3.8E1,-7.516478E-2,9E0,1.41E2,-2.2323456E-1,-6.275408E-2,1E0,2E0,-3.013415E-1,8.335325E-3,1.4E1,1.5560001E0,3E0,1E0,2E0,1.9600002E0,4E0,3.183347E-2,1.2300001E0,1.6330001E0,1.5560001E0,2E2,1E0,-2.3171057E-1,9E1,1.7100002E0,1.2E2,1.5090002E0,2.54E2,5.67E2,2E0,1.7E2,2.4E1,5.2E1,1.0411082E-1,1.8660002E0,1.3100002E0,7E0,1.2800001E0,3E0,5E0,1.6E1,-2.4987906E-1,-2.4986073E-2,1.7900002E0,1.2E1,1.6410002E0,1.7900002E0,-2.9379132E-1,1.8100002E0,-3.0145913E-1,-1.2902449E-1,2E0,1.8300002E0,6.6E1,1E0,1E0,1E0,1.5200002E0,1.6600002E0,1.3516867E-1,1.5300002E0,1.6000001E0,-1.1303273E-1,2E0,1.7600002E0,1E1,1.02E2,8.3E2,2.97E3,-3.2336432E-1,1.6070001E0,5E0,1.7400001E0,1E3,1E4,-2.8032664E-2,-1.0232427E-1,-2.4176273E-1,-8.7375335E-2,8.7920174E-2,-2.0018881E-2,3.1E1,-1.7106058E-1,-4.2541757E-2,-1.2973512E-3,-1.3648991E-1,-1.9639794E-2,-9.926834E-2,2.020193E-2,-8.325728E-3,-1.742029E-1,-9.70406E-2,-2.9695842E-1,-2.3129638E-2,-9.605041E-2,2.9614458E-2,1.6304982E-1,-2.5529847E-1,1.5819786E-2,-5.3315762E-2,-1.6815443E-1,1.1543078E-1,-1.0669949E-1,7.8525886E-2,-3.3848006E-2,-5.2845076E-2,-1.448166E-1,-7.179336E-2,-1.5081443E-1,-5.6947637E-2,2.3290636E-2,4.0235545E-2,9.288728E-2,-1.5749331E-1,-2.9926006E-2,1.2998016E-1,-1.7125717E-1,-1.730263E-1,-7.002873E-2,-8.2621396E-2,-2.067615E-1,1.2457378E-1,-5.420686E-2,6.2037263E-2,-7.026701E-3,1.17214166E-1,8.642769E-2,2.0062773E-1,-6.868613E-2,1.2776887E-1,-1.1070414E-2,5.9174933E-2,1.5090883E-1,3.4460686E-2,1.4335153E-1,1.16217114E-1,-1.3278025E-2,2.273793E-1,-3.361015E-2,1.703901E-1,-7.090481E-2,3.6009975E-2,1.3152437E-1,1.9028409E-1,8.687615E-3,5.7418518E-2,1.4032015E-1,-1.0210239E-1,-2.1266142E-2,-8.6504295E-2,7.688397E-2],"split_indices":[10,10,0,47,0,9,0,0,47,0,47,45,10,47,0,0,33,0,0,0,0,47,0,0,47,9,9,32,0,10,10,10,47,10,0,0,0,0,10,49,47,0,9,10,0,47,9,0,0,9,47,0,0,10,0,10,9,10,0,9,0,0,0,0,47,33,0,9,0,9,0,10,47,47,10,9,10,0,0,0,10,0,47,10,10,0,0,0,10,0,0,0,0,0,0,9,0,10,47,23,47,0,0,0,0,0,0,9,0,9,9,10,10,0,0,47,0,9,10,0,0,0,0,0,0,10,0,0,0,0,0,0,0,0,0,0,0,0,0,0,0,0,0,0,0,0,0,0,0,0,0,0,0,0,0,0,0,0,0,0,0,0,0,0,0,0,0,0,0,0,0,0,0,0,0,0,0,0,0,0,0,0,0,0,0,0,0,0,0,0,0,0,0,0,0],"split_type":[0,0,0,0,0,0,0,0,0,0,0,0,0,0,0,0,0,0,0,0,0,0,0,0,0,0,0,0,0,0,0,0,0,0,0,0,0,0,0,0,0,0,0,0,0,0,0,0,0,0,0,0,0,0,0,0,0,0,0,0,0,0,0,0,0,0,0,0,0,0,0,0,0,0,0,0,0,0,0,0,0,0,0,0,0,0,0,0,0,0,0,0,0,0,0,0,0,0,0,0,0,0,0,0,0,0,0,0,0,0,0,0,0,0,0,0,0,0,0,0,0,0,0,0,0,0,0,0,0,0,0,0,0,0,0,0,0,0,0,0,0,0,0,0,0,0,0,0,0,0,0,0,0,0,0,0,0,0,0,0,0,0,0,0,0,0,0,0,0,0,0,0,0,0,0,0,0,0,0,0,0,0,0,0,0,0,0,0,0,0,0,0,0,0,0],"sum_hessian":[4.841E3,2.733E3,2.108E3,1.96E2,2.537E3,2.06E3,4.8E1,1.62E2,3.4E1,2.402E3,1.35E2,5.58E2,1.502E3,3.8E1,1E1,1E0,3.3E1,5.58E2,1.844E3,6.3E1,7.2E1,5.4E2,1.8E1,9.79E2,5.23E2,1.7E1,2.1E1,3.2E1,1E0,5.29E2,2.9E1,1.722E3,1.22E2,4.8E1,1.5E1,5E1,2.2E1,4.86E2,5.4E1,8.84E2,9.5E1,1.45E2,3.78E2,1.3E1,4E0,1.6E1,5E0,3.1E1,1E0,4.22E2,1.07E2,2.8E1,1E0,1.719E3,3E0,7.8E1,4.4E1,1.9E1,2.9E1,4.6E1,4E0,3.58E2,1.28E2,4.4E1,1E1,8.82E2,2E0,4.2E1,5.3E1,1.16E2,2.9E1,3.25E2,5.3E1,3E0,1E1,3E0,1.3E1,2E0,3E0,2.77E2,1.45E2,1.03E2,4E0,1.68E3,3.9E1,2E0,1E0,1.3E1,6.5E1,3.4E1,1E1,4E0,1.5E1,2.3E1,6E0,4E1,6E0,3.14E2,4.4E1,1.19E2,9E0,3.2E1,1.2E1,7E0,3E0,8.79E2,3E0,3.6E1,6E0,2E1,3.3E1,1.07E2,9E0,5E0,2.4E1,2.9E1,2.96E2,4.8E1,5E0,2E0,1E0,8E0,2E0,2E0,1E0,6E0,7E0,2E0,1E0,2.63E2,1.4E1,9.2E1,5.3E1,9.9E1,4E0,2E0,2E0,1.625E3,5.5E1,3.5E1,4E0,1.2E1,1E0,3.6E1,2.9E1,3E0,3.1E1,9E0,1E0,5E0,1E1,3.6E1,4E0,2E0,4E0,2.06E2,1.08E2,2.2E1,2.2E1,1.18E2,1E0,4E0,5E0,2.6E1,6E0,5E0,7E0,2E0,1E0,7.04E2,1.75E2,1E0,3.5E1,5E0,1E0,3E0,1.7E1,2.6E1,7E0,9.8E1,9E0,8E0,1E0,1.4E1,1E1,2E0,2.7E1,2.94E2,2E0,2.3E1,2.5E1,4E0,1E0,5E0,1E0],"tree_param":{"num_deleted":"0","num_feature":"77","num_nodes":"195","size_leaf_vector":"1"}},{"base_weights":[-8.01406E-3,-1.4391997E0,2.050446E0,-7.5304937E0,-1.1761566E0,2.345995E0,-2.2918842E0,-3.6534756E-1,-5.497417E0,-7.6795393E-1,-3.6465394E0,2.372974E0,-2.999383E-1,-6.6665177E0,-9.872755E-1,-2.8220098E0,-2.7719927E-1,-6.468966E-1,-2.432801E0,-4.831934E0,-7.9049855E-1,1.9303373E0,2.8251112E0,-1.5660565E-1,-3.2539308E-1,-3.0991507E-1,-3.0911136E0,-2.1364155E-1,5.5188198E-2,-1.922283E0,-5.54992E-1,-4.342933E0,-8.8165313E-1,-5.508273E0,-3.561078E0,-2.4706608E-1,-3.0765054E0,2.271075E0,-1.3129746E0,3.7834024E0,2.447105E0,-1.1944288E0,6.546921E-1,-2.237834E-1,-6.844682E-1,-2.6172624E0,-5.9876308E-2,-4.9982852E-1,-1.7920113E0,-2.4234466E-1,-3.898251E0,6.883838E-1,-1.2893863E0,-2.3432192E-1,-6.201444E0,-3.7545955E0,-5.08982E-1,1.0649558E-1,-2.458219E0,-2.3757575E-1,-2.4981213E0,2.8091235E0,1.1519709E0,-2.4031634E0,2.383511E0,4.4163203E0,2.6576235E0,2.4616752E0,-1.6779734E-1,-9.076929E-1,-2.0813298E-1,1.8711143E0,-4.7282243E-1,-1.5499918E0,5.723285E-2,-1.250325E-1,8.139446E-3,-5.4363084E-1,1.264464E-1,-2.9530818E0,-6.4272135E-1,6.257412E-2,-1.8951467E-1,1.249414E0,-2.2114307E-1,-2.0688713E0,1.392944E-1,-6.2465773E0,-7.043124E-2,-2.1393075E0,-4.145707E0,4.6959173E-2,-8.8823766E-2,1.0828133E-1,-1.959656E-1,-1.03395E0,-2.5400886E-1,3.1050777E-1,-3.5233822E0,2.019689E0,3.0111523E0,-1.7902905E0,1.3504717E0,-1.5426939E0,-3.0238247E-1,6.163857E-2,2.1097307E-1,4.4675303E0,-9.117505E-2,1.9057702E0,3.193183E0,2.4981506E0,-1.5174007E-1,-3.378569E-1,-3.0023458E0,-1.1523748E-1,2.5647185E0,-9.196192E-2,1.206613E0,4.6409883E-2,-2.0535407E0,-2.2780756E-2,-1.4916472E-1,-4.171273E-2,2.0180415E-2,-4.6505913E-2,-2.2478026E-1,-7.270412E-2,1.7523475E-2,1.9229138E-2,1.1803933E-1,-1.1822188E-1,3.6555376E-2,2.4242789E-2,-1.3720194E-1,-1.9615717E-1,-3.0457526E-1,-3.7664883E-2,-1.9016814E-1,-2.022818E-1,-1.611904E-2,-5.2755613E-2,2.2396576E-2,-7.797449E-2,1.0790221E-1,-7.269882E-2,7.6415345E-2,-1.8694498E-1,-6.5509096E-2,1.085673E-1,-1.0960434E-1,1.4554915E-1,5.5746943E-2,-1.0605884E-1,1.4419234E-1,8.059749E-2,-6.902105E-3,-1.4907724E-1,-1.5744092E-2,-7.261991E-2,7.79312E-2,2.328527E-1,1.7577235E-1,6.4611495E-2,1.0244881E-1,1.3333444E-1,2.1044081E-1,3.2522984E-2,1.2006296E-1,-8.401794E-2,5.8128405E-2,-6.586589E-2,8.09924E-2,1.8581882E-2,-1.6658115E-1,1.5038572E-1,-5.889791E-2,1.0238432E-1,-1.7716983E-1,-1.1002367E-1,-7.7430937E-3],"categories":[],"categories_nodes":[],"categories_segments":[],"categories_sizes":[],"default_left":[0,0,0,0,0,0,0,0,0,0,0,0,0,0,0,0,0,0,0,0,0,0,0,0,0,0,0,0,0,0,0,0,0,0,0,0,0,0,0,0,0,0,0,0,0,0,0,0,0,0,0,0,0,0,0,0,0,0,0,0,0,0,0,0,0,0,0,0,0,0,0,0,0,0,0,0,0,0,0,0,0,0,0,0,0,0,0,0,0,0,0,0,0,0,0,0,0,0,0,0,0,0,0,0,0,0,0,0,0,0,0,0,0,0,0,0,0,0,0,0,0,0,0,0,0,0,0,0,0,0,0,0,0,0,0,0,0,0,0,0,0,0,0,0,0,0,0,0,0,0,0,0,0,0,0,0,0,0,0,0,0,0,0,0,0,0,0,0,0,0,0,0,0,0,0,0,0,0,0,0,0],"id":3,"left_children":[1,3,5,7,9,11,13,-1,15,17,19,21,-1,23,25,27,-1,29,31,33,35,37,39,-1,-1,41,43,-1,-1,45,47,49,51,53,55,57,59,61,63,65,67,69,71,-1,73,75,-1,77,79,-1,81,83,85,-1,87,89,91,93,95,-1,97,99,101,103,105,107,109,111,-1,113,-1,115,117,119,-1,-1,-1,121,123,125,127,-1,-1,129,-1,131,133,135,-1,137,139,-1,-1,-1,141,143,-1,145,147,149,151,153,155,157,-1,159,-1,161,-1,163,165,167,169,171,173,-1,175,-1,177,-1,179,-1,-1,-1,-1,-1,-1,-1,-1,-1,-1,-1,-1,-1,-1,-1,-1,-1,-1,-1,-1,-1,-1,-1,-1,-1,-1,-1,-1,-1,-1,-1,-1,-1,-1,-1,-1,-1,-1,-1,-1,-1,-1,-1,-1,-1,-1,-1,-1,-1,-1,-1,-1,-1,-1,-1,-1,-1,-1,-1,-1],"loss_changes":[1.4258831E4,4.56563E3,2.5528682E3,1.5493164E1,2.7582456E3,4.5286523E2,7.182307E2,0E0,4.9298096E-1,4.722511E2,1.3097686E3,3.655918E2,0E0,1.74646E0,1.4012262E2,3.288655E1,0E0,2.5598315E2,4.6727173E2,2.1589502E2,1.421033E2,1.0417937E3,3.221914E2,0E0,0E0,6.5625824E1,9.320763E1,0E0,0E0,6.2901917E1,1.3878815E2,5.5758057E0,5.7861465E1,3.3226074E1,5.597119E1,7.374901E1,1.254422E1,5.0917773E2,3.6841605E2,1.7138232E2,6.656421E1,3.307087E1,5.163145E1,0E0,1.999747E1,8.850311E0,0E0,5.3863495E1,1.1419537E2,0E0,4.0379272E1,6.33706E1,7.9356285E1,0E0,5.921875E0,4.9252686E1,1.646529E1,5.4948925E1,4.8961037E1,0E0,5.5806007E1,8.546533E1,1.6478128E2,2.3283633E2,1.0237094E2,6.17229E1,3.216742E1,6.3103027E1,0E0,4.4342773E1,0E0,6.0259422E1,5.219896E1,1.2249424E1,0E0,0E0,0E0,2.8261847E2,4.000165E1,1.497326E2,4.1896053E1,0E0,0E0,1.8060757E1,0E0,6.041516E1,3.1444567E1,7.3415527E0,0E0,4.7779915E1,4.2406128E1,0E0,0E0,0E0,4.601628E1,2.462088E1,0E0,1.7172089E1,7.994751E0,1.5693265E2,6.739014E1,4.769353E1,1.4263422E2,1.1501979E2,0E0,3.0777067E1,0E0,3.8851807E1,0E0,3.114151E0,1.2008972E1,6.4263916E1,2.4924278E1,7.03662E1,1.6129929E1,0E0,4.279358E1,0E0,5.656582E1,0E0,3.4134712E0,0E0,0E0,0E0,0E0,0E0,0E0,0E0,0E0,0E0,0E0,0E0,0E0,0E0,0E0,0E0,0E0,0E0,0E0,0E0,0E0,0E0,0E0,0E0,0E0,0E0,0E0,0E0,0E0,0E0,0E0,0E0,0E0,0E0,0E0,0E0,0E0,0E0,0E0,0E0,0E0,0E0,0E0,0E0,0E0,0E0,0E0,0E0,0E0,0E0,0E0,0E0,0E0,0E0,0E0,0E0,0E0,0E0,0E0,0E0,0E0],"parents":[2147483647,0,0,1,1,2,2,3,3,4,4,5,5,6,6,8,8,9,9,10,10,11,11,13,13,14,14,15,15,17,17,18,18,19,19,20,20,21,21,22,22,25,25,26,26,29,29,30,30,31,31,32,32,33,33,34,34,35,35,36,36,37,37,38,38,39,39,40,40,41,41,42,42,44,44,45,45,47,47,48,48,50,50,51,51,52,52,54,54,55,55,56,56,57,57,58,58,60,60,61,61,62,62,63,63,64,64,65,65,66,66,67,67,69,69,71,71,72,72,73,73,77,77,78,78,79,79,80,80,83,83,85,85,86,86,87,87,89,89,90,90,94,94,95,95,97,97,98,98,99,99,100,100,101,101,102,102,103,103,105,105,107,107,109,109,110,110,111,111,112,112,113,113,114,114,116,116,118,118,120,120],"right_children":[2,4,6,8,10,12,14,-1,16,18,20,22,-1,24,26,28,-1,30,32,34,36,38,40,-1,-1,42,44,-1,-1,46,48,50,52,54,56,58,60,62,64,66,68,70,72,-1,74,76,-1,78,80,-1,82,84,86,-1,88,90,92,94,96,-1,98,100,102,104,106,108,110,112,-1,114,-1,116,118,120,-1,-1,-1,122,124,126,128,-1,-1,130,-1,132,134,136,-1,138,140,-1,-1,-1,142,144,-1,146,148,150,152,154,156,158,-1,160,-1,162,-1,164,166,168,170,172,174,-1,176,-1,178,-1,180,-1,-1,-1,-1,-1,-1,-1,-1,-1,-1,-1,-1,-1,-1,-1,-1,-1,-1,-1,-1,-1,-1,-1,-1,-1,-1,-1,-1,-1,-1,-1,-1,-1,-1,-1,-1,-1,-1,-1,-1,-1,-1,-1,-1,-1,-1,-1,-1,-1,-1,-1,-1,-1,-1,-1,-1,-1,-1,-1,-1],"split_conditions":[1.1E1,1E0,1E0,6E0,2E0,7E0,1E0,-3.6534756E-1,4E0,3.4E1,2.1E1,1.61E2,-2.999383E-1,5.4E1,8E1,2.1E1,-2.7719927E-1,5E0,5E0,2E0,9E0,2.4E1,4.91E2,-1.5660565E-1,-3.2539308E-1,2.1E1,2.5E1,-2.1364155E-1,5.5188198E-2,1E0,1E0,4E0,4.8E1,6E0,1E0,1E0,3E1,1.2E2,1.46E2,4.6E1,6.3E1,3.7E1,2.2E1,-2.237834E-1,1E2,1E0,-5.9876308E-2,5E0,2E0,-2.4234466E-1,5E0,1E0,1E1,-2.3432192E-1,1E1,4E0,2E0,3E0,6E0,-2.3757575E-1,5.7E1,1.8E1,2E1,1.02E2,4.39E2,1E0,4.39E2,1.033E3,-1.6779734E-1,6E0,-2.0813298E-1,6E0,4.18E2,1.173E3,5.723285E-2,-1.250325E-1,8.139446E-3,1.5E1,2.3E1,1.2E1,2E0,6.257412E-2,-1.8951467E-1,8E0,-2.2114307E-1,6.3E1,1E0,3E0,-7.043124E-2,1.2E1,1E0,4.6959173E-2,-8.8823766E-2,1.0828133E-1,6E0,3.4E1,-2.5400886E-1,3.4E1,6E0,1.2E1,4E1,1E0,5.83E2,5.2E1,-3.0238247E-1,4E1,2.1097307E-1,4.87E2,-9.117505E-2,5.2E1,5.2E1,1.71E2,2.456E3,4E0,4.2E1,-1.1523748E-1,2.85E2,-9.196192E-2,4.97E2,4.6409883E-2,7.5E1,-2.2780756E-2,-1.4916472E-1,-4.171273E-2,2.0180415E-2,-4.6505913E-2,-2.2478026E-1,-7.270412E-2,1.7523475E-2,1.9229138E-2,1.1803933E-1,-1.1822188E-1,3.6555376E-2,2.4242789E-2,-1.3720194E-1,-1.9615717E-1,-3.0457526E-1,-3.7664883E-2,-1.9016814E-1,-2.022818E-1,-1.611904E-2,-5.2755613E-2,2.2396576E-2,-7.797449E-2,1.0790221E-1,-7.269882E-2,7.6415345E-2,-1.8694498E-1,-6.5509096E-2,1.085673E-1,-1.0960434E-1,1.4554915E-1,5.5746943E-2,-1.0605884E-1,1.4419234E-1,8.059749E-2,-6.902105E-3,-1.4907724E-1,-1.5744092E-2,-7.261991E-2,7.79312E-2,2.328527E-1,1.7577235E-1,6.4611495E-2,1.0244881E-1,1.3333444E-1,2.1044081E-1,3.2522984E-2,1.2006296E-1,-8.401794E-2,5.8128405E-2,-6.586589E-2,8.09924E-2,1.8581882E-2,-1.6658115E-1,1.5038572E-1,-5.889791E-2,1.0238432E-1,-1.7716983E-1,-1.1002367E-1,-7.7430937E-3],"split_indices":[3,73,44,3,9,8,73,0,44,1,1,3,0,1,73,1,0,1,73,73,9,9,1,0,0,3,44,0,0,9,44,73,1,1,48,44,1,1,3,9,24,9,73,0,44,44,0,3,73,0,3,44,73,0,1,9,48,9,73,0,1,3,73,9,1,4,1,9,0,44,0,73,1,1,0,0,0,1,1,1,44,0,0,3,0,1,4,9,0,1,54,0,0,0,3,1,0,1,44,73,3,9,1,3,0,9,0,1,0,9,9,3,1,44,1,0,1,0,1,0,44,0,0,0,0,0,0,0,0,0,0,0,0,0,0,0,0,0,0,0,0,0,0,0,0,0,0,0,0,0,0,0,0,0,0,0,0,0,0,0,0,0,0,0,0,0,0,0,0,0,0,0,0,0,0,0,0,0,0,0,0],"split_type":[0,0,0,0,0,0,0,0,0,0,0,0,0,0,0,0,0,0,0,0,0,0,0,0,0,0,0,0,0,0,0,0,0,0,0,0,0,0,0,0,0,0,0,0,0,0,0,0,0,0,0,0,0,0,0,0,0,0,0,0,0,0,0,0,0,0,0,0,0,0,0,0,0,0,0,0,0,0,0,0,0,0,0,0,0,0,0,0,0,0,0,0,0,0,0,0,0,0,0,0,0,0,0,0,0,0,0,0,0,0,0,0,0,0,0,0,0,0,0,0,0,0,0,0,0,0,0,0,0,0,0,0,0,0,0,0,0,0,0,0,0,0,0,0,0,0,0,0,0,0,0,0,0,0,0,0,0,0,0,0,0,0,0,0,0,0,0,0,0,0,0,0,0,0,0,0,0,0,0,0,0],"sum_hessian":[4.838E3,2.854E3,1.984E3,1.17E2,2.737E3,1.858E3,1.26E2,1.02E2,1.5E1,2.35E3,3.87E2,1.853E3,5E0,2.8E1,9.8E1,3E0,1.2E1,2.192E3,1.58E2,2.73E2,1.14E2,9.39E2,9.14E2,3E0,2.5E1,7.5E1,2.3E1,2E0,1E0,1.46E2,2.046E3,7E1,8.8E1,1.76E2,9.7E1,9.3E1,2.1E1,8.5E2,8.9E1,2.56E2,6.58E2,3.9E1,3.6E1,1.3E1,1E1,6.9E1,7.7E1,1.96E3,8.6E1,2.1E1,4.9E1,1.8E1,7E1,1.05E2,7.1E1,9.1E1,6E0,8.1E1,1.2E1,3E0,1.8E1,5.73E2,2.77E2,6.9E1,2E1,1.62E2,9.4E1,6.57E2,1E0,3.7E1,2E0,1.7E1,1.9E1,7E0,3E0,6.8E1,1E0,1.832E3,1.28E2,4.2E1,4.4E1,1E0,4.8E1,1.7E1,1E0,4.5E1,2.5E1,7E1,1E0,1.9E1,7.2E1,3E0,3E0,9E0,7.2E1,9E0,3E0,5E0,1.3E1,1.19E2,4.54E2,1.7E1,2.6E2,5.8E1,1.1E1,1E1,1E1,1.61E2,1E0,4.1E1,5.3E1,6.48E2,9E0,3E1,7E0,2E0,1.5E1,1E1,9E0,1E0,6E0,1.793E3,3.9E1,2.9E1,9.9E1,2.1E1,2.1E1,2.3E1,2.1E1,1.1E1,6E0,3.9E1,6E0,2.3E1,2E0,9E0,6.1E1,1.2E1,7E0,6.9E1,3E0,3E1,4.2E1,8E0,1E0,2E0,3E0,1E1,3E0,1.12E2,7E0,4.33E2,2.1E1,1.6E1,1E0,2.09E2,5.1E1,2.4E1,3.4E1,5E0,5E0,9.3E1,6.8E1,1.6E1,2.5E1,4.4E1,9E0,2E1,6.28E2,4E0,5E0,2E1,1E1,1E0,6E0,1.3E1,2E0,8E0,1E0,5E0,1E0],"tree_param":{"num_deleted":"0","num_feature":"77","num_nodes":"181","size_leaf_vector":"1"}},{"base_weights":[-8.5995905E-3,-1.3929254E0,1.8168308E0,-7.0403366E0,-1.0829741E0,2.0523093E0,-3.9659321E0,-3.1069702E-1,-3.7516367E-1,-8.841964E-1,-5.7702866E0,-2.391586E0,2.1694603E0,-1.9547715E0,-5.1500735E0,-7.090001E-1,-2.8054488E0,-1.4691056E-1,-5.9542766E0,-1.0276965E0,-4.5224247E0,2.2913053E0,-8.320507E-1,3.761802E-2,-2.7360377E0,-2.9989088E-1,-3.6151762E0,-5.4167444E-1,-2.8262305E0,-4.9421706E0,-1.0159353E0,-2.4293253E-1,-3.091211E-1,-1.7796657E0,4.3655506E-1,-1.4285092E-1,-2.3910429E-1,1.7791178E0,2.716309E0,1.272201E-1,-2.9557412E0,-1.4779458E0,1.2598364E-1,-3.4619296E0,-1.7821429E0,-1.766903E-1,-3.6744575E-3,-1.7524407E0,-4.5951256E-1,-4.088545E0,-1.4842393E0,-1.8119222E-1,-5.255342E0,-6.81705E-1,-3.378475E0,-1.3133816E0,-3.5495992E0,1.1729558E0,-1.01692714E-1,1.9615462E0,-8.5877144E-1,2.801405E0,8.4434706E-1,2.6690931E0,-3.0814597E-1,-2.1401666E-1,-6.535817E-1,-1.2523665E-1,9.9238807E-1,-1.0284561E-1,-2.2596037E-1,4.167176E-2,-2.1053588E0,-2.4850569E0,-1.1510011E0,-4.0010968E-1,-1.7429281E0,-3.7242727E0,-5.84759E0,-1.1820452E0,-4.59634E0,-2.6102716E-1,-1.097951E0,1.9524273E-1,-2.1033192E0,-2.3885301E-1,-1.4656876E0,1.2983619E-1,-1.9553825E0,-1.9392891E-1,-4.277552E-2,1.6566601E0,3.323412E-2,1.9900334E0,-2.9469135E-1,-1.6918694E0,9.939835E-1,2.8824437E0,1.7067231E0,-3.9185572E-1,1.7287807E0,6.5199566E-1,1.7620425E-1,-5.9648883E-1,1.936303E-1,-1.4860606E0,5.521535E-2,6.0717903E-2,9.246835E-3,-1.3607416E-1,-6.802442E-2,-1.6422729E-1,-8.7051235E-2,-5.938745E-2,3.2887902E-2,-1.8086528E-2,-1.873965E-1,-1.3433658E-1,-2.8846307E-2,-2.136557E-1,-1.1459436E-1,-3.0181438E-1,2.4412332E-2,-4.8024304E-2,-2.2536111E-1,-2.3485523E-1,-5.154709E-2,4.6646684E-2,-1.1239209E-1,4.269054E-2,-1.2558511E-1,2.2101996E-2,-1.0599367E-1,9.253122E-2,-1.3811718E-1,-1.0145135E-1,-1.3537019E-2,9.159496E-2,-2.258929E-3,-9.9141344E-2,6.817695E-2,9.7091585E-2,2.3652192E-3,-1.2682709E-1,-3.2930605E-2,6.6760056E-2,-7.574473E-2,9.454773E-2,1.4115487E-1,-1.0874979E-1,1.09880775E-1,1.0467887E-1,-5.5734128E-2,9.652309E-2,-3.0672068E-2,5.3390957E-2,-1.879764E-2,-7.7493E-2,2.7192421E-2,4.5319237E-2,-9.27726E-2],"categories":[],"categories_nodes":[],"categories_segments":[],"categories_sizes":[],"default_left":[0,0,0,0,0,0,0,0,0,0,0,0,0,0,0,0,0,0,0,0,0,0,0,0,0,0,0,0,0,0,0,0,0,0,0,0,0,0,0,0,0,0,0,0,0,0,0,0,0,0,0,0,0,0,0,0,0,0,0,0,0,0,0,0,0,0,0,0,0,0,0,0,0,0,0,0,0,0,0,0,0,0,0,0,0,0,0,0,0,0,0,0,0,0,0,0,0,0,0,0,0,0,0,0,0,0,0,0,0,0,0,0,0,0,0,0,0,0,0,0,0,0,0,0,0,0,0,0,0,0,0,0,0,0,0,0,0,0,0,0,0,0,0,0,0,0,0,0,0,0,0,0,0,0,0,0,0,0,0,0,0],"id":4,"left_children":[1,3,5,7,9,11,13,-1,-1,15,17,19,21,23,25,27,29,-1,31,33,35,37,39,41,43,-1,45,47,49,51,53,-1,-1,55,57,-1,-1,59,61,63,65,67,-1,69,71,-1,-1,73,75,77,79,-1,81,83,85,87,89,91,-1,93,95,97,99,101,103,-1,105,-1,107,-1,-1,-1,109,111,113,115,117,119,121,123,125,-1,127,129,131,-1,133,-1,135,-1,-1,137,139,141,-1,143,145,147,149,151,153,155,-1,157,-1,159,-1,-1,-1,-1,-1,-1,-1,-1,-1,-1,-1,-1,-1,-1,-1,-1,-1,-1,-1,-1,-1,-1,-1,-1,-1,-1,-1,-1,-1,-1,-1,-1,-1,-1,-1,-1,-1,-1,-1,-1,-1,-1,-1,-1,-1,-1,-1,-1,-1,-1,-1,-1,-1,-1,-1],"loss_changes":[1.2228109E4,4.8095366E3,2.850041E3,5.126465E0,2.4267212E3,1.0495254E3,1.852157E2,0E0,0E0,8.411847E2,3.2966064E1,1.464762E2,7.168877E2,4.9913696E1,7.3253296E1,8.1222034E2,7.9413086E2,0E0,1.3942383E1,3.7112297E1,1.2914429E0,4.041914E2,1.5724E2,4.401537E1,9.7561035E0,0E0,1.2449707E1,2.1108472E2,2.78526E2,1.208252E1,8.85046E1,0E0,0E0,1.3494446E1,2.5515198E1,0E0,0E0,4.1313257E2,1.6091309E2,6.0581318E1,8.530061E1,2.3163555E1,0E0,1.0048706E1,1.2217663E1,0E0,0E0,5.6623962E1,1.5147485E2,3.332837E1,7.2624954E1,0E0,8.1958374E1,1.27572174E2,3.8167038E1,5.5118248E1,2.3312073E0,5.4578257E0,0E0,2.0007007E2,8.811917E1,8.201807E1,5.097104E1,1.4981155E1,6.2464203E1,0E0,1.8488503E1,0E0,4.6063495E-1,0E0,0E0,0E0,1.5268097E0,3.1849335E1,1.671305E1,1.0321594E2,1.09065735E2,6.7102905E1,5.0834686E1,3.9685783E1,4.3305817E0,0E0,1.8594734E1,1.3327257E2,1.6298584E1,0E0,4.6253952E1,0E0,5.1356506E0,0E0,0E0,3.579668E0,1.5206525E1,1.1707837E2,0E0,3.7019753E1,2.2287817E1,8.978662E1,1.8302855E2,4.422862E1,2.222776E1,2.4906983E0,0E0,5.659432E1,0E0,1.146492E1,0E0,0E0,0E0,0E0,0E0,0E0,0E0,0E0,0E0,0E0,0E0,0E0,0E0,0E0,0E0,0E0,0E0,0E0,0E0,0E0,0E0,0E0,0E0,0E0,0E0,0E0,0E0,0E0,0E0,0E0,0E0,0E0,0E0,0E0,0E0,0E0,0E0,0E0,0E0,0E0,0E0,0E0,0E0,0E0,0E0,0E0,0E0,0E0,0E0,0E0,0E0,0E0,0E0,0E0,0E0],"parents":[2147483647,0,0,1,1,2,2,3,3,4,4,5,5,6,6,9,9,10,10,11,11,12,12,13,13,14,14,15,15,16,16,18,18,19,19,20,20,21,21,22,22,23,23,24,24,26,26,27,27,28,28,29,29,30,30,33,33,34,34,37,37,38,38,39,39,40,40,41,41,43,43,44,44,47,47,48,48,49,49,50,50,52,52,53,53,54,54,55,55,56,56,57,57,59,59,60,60,61,61,62,62,63,63,64,64,66,66,68,68,72,72,73,73,74,74,75,75,76,76,77,77,78,78,79,79,80,80,82,82,83,83,84,84,86,86,88,88,91,91,92,92,93,93,95,95,96,96,97,97,98,98,99,99,100,100,101,101,103,103,105,105],"right_children":[2,4,6,8,10,12,14,-1,-1,16,18,20,22,24,26,28,30,-1,32,34,36,38,40,42,44,-1,46,48,50,52,54,-1,-1,56,58,-1,-1,60,62,64,66,68,-1,70,72,-1,-1,74,76,78,80,-1,82,84,86,88,90,92,-1,94,96,98,100,102,104,-1,106,-1,108,-1,-1,-1,110,112,114,116,118,120,122,124,126,-1,128,130,132,-1,134,-1,136,-1,-1,138,140,142,-1,144,146,148,150,152,154,156,-1,158,-1,160,-1,-1,-1,-1,-1,-1,-1,-1,-1,-1,-1,-1,-1,-1,-1,-1,-1,-1,-1,-1,-1,-1,-1,-1,-1,-1,-1,-1,-1,-1,-1,-1,-1,-1,-1,-1,-1,-1,-1,-1,-1,-1,-1,-1,-1,-1,-1,-1,-1,-1,-1,-1,-1,-1,-1],"split_conditions":[1E1,1E0,1.7900002E0,1.4100002E0,1.9600002E0,8E0,1.9010003E0,-3.1069702E-1,-3.7516367E-1,2E0,1.9800003E0,5.1E1,1E0,1.7E1,1.1E1,7E0,2E0,-1.4691056E-1,1E0,1.5000001E0,1.02E2,1E0,8E1,1.8300002E0,8.1E1,-2.9989088E-1,1E0,1E0,5E0,3E0,8E0,-2.4293253E-1,-3.091211E-1,1E0,2.7E1,-1.4285092E-1,-2.3910429E-1,1.6400002E0,1.7100002E0,1.3E1,2.5E1,1E0,1.2598364E-1,2.7E1,8.5E1,-1.766903E-1,-3.6744575E-3,1E0,1E0,1.6700002E0,1.6600002E0,-1.8119222E-1,1.4800001E0,1.6230001E0,4E0,1E0,9.8E1,7E0,-1.01692714E-1,7E0,5.1E1,1.5E3,4.9E1,1.9E1,1E0,-2.1401666E-1,1E2,-1.2523665E-1,1.8100002E0,-1.0284561E-1,-2.2596037E-1,4.167176E-2,1.8300002E0,1.2000002E0,1.9300002E0,1.8100002E0,2E0,1.5690001E0,1.9300002E0,1E0,1E0,-2.6102716E-1,1.6070001E0,5E0,3E0,-2.3885301E-1,9E0,1.2983619E-1,2.7E1,-1.9392891E-1,-4.277552E-2,2.3E1,1.5300002E0,2.17E2,-2.9469135E-1,1.6600002E0,1.7600002E0,1.8E1,1.667E3,1E1,5.25E2,1.2000002E0,1.7620425E-1,1.8E1,1.936303E-1,1.83E2,5.521535E-2,6.0717903E-2,9.246835E-3,-1.3607416E-1,-6.802442E-2,-1.6422729E-1,-8.7051235E-2,-5.938745E-2,3.2887902E-2,-1.8086528E-2,-1.873965E-1,-1.3433658E-1,-2.8846307E-2,-2.136557E-1,-1.1459436E-1,-3.0181438E-1,2.4412332E-2,-4.8024304E-2,-2.2536111E-1,-2.3485523E-1,-5.154709E-2,4.6646684E-2,-1.1239209E-1,4.269054E-2,-1.2558511E-1,2.2101996E-2,-1.0599367E-1,9.253122E-2,-1.3811718E-1,-1.0145135E-1,-1.3537019E-2,9.159496E-2,-2.258929E-3,-9.9141344E-2,6.817695E-2,9.7091585E-2,2.3652192E-3,-1.2682709E-1,-3.2930605E-2,6.6760056E-2,-7.574473E-2,9.454773E-2,1.4115487E-1,-1.0874979E-1,1.09880775E-1,1.0467887E-1,-5.5734128E-2,9.652309E-2,-3.0672068E-2,5.3390957E-2,-1.879764E-2,-7.7493E-2,2.7192421E-2,4.5319237E-2,-9.27726E-2],"split_indices":[73,73,0,0,0,2,0,0,0,9,0,9,44,2,47,2,73,0,2,0,9,47,73,0,2,0,2,2,73,9,2,0,0,14,47,0,0,0,0,73,44,2,0,9,2,0,0,9,44,0,0,0,0,0,9,47,73,2,0,8,9,2,9,2,26,0,44,0,0,0,0,0,0,0,0,0,73,0,0,23,47,0,0,9,9,0,9,0,9,0,0,47,0,2,0,0,0,2,2,2,9,0,0,44,0,2,0,0,0,0,0,0,0,0,0,0,0,0,0,0,0,0,0,0,0,0,0,0,0,0,0,0,0,0,0,0,0,0,0,0,0,0,0,0,0,0,0,0,0,0,0,0,0,0,0,0,0,0,0,0,0],"split_type":[0,0,0,0,0,0,0,0,0,0,0,0,0,0,0,0,0,0,0,0,0,0,0,0,0,0,0,0,0,0,0,0,0,0,0,0,0,0,0,0,0,0,0,0,0,0,0,0,0,0,0,0,0,0,0,0,0,0,0,0,0,0,0,0,0,0,0,0,0,0,0,0,0,0,0,0,0,0,0,0,0,0,0,0,0,0,0,0,0,0,0,0,0,0,0,0,0,0,0,0,0,0,0,0,0,0,0,0,0,0,0,0,0,0,0,0,0,0,0,0,0,0,0,0,0,0,0,0,0,0,0,0,0,0,0,0,0,0,0,0,0,0,0,0,0,0,0,0,0,0,0,0,0,0,0,0,0,0,0,0,0],"sum_hessian":[4.837E3,2.751E3,2.086E3,1.42E2,2.609E3,2.005E3,8.1E1,1.03E2,3.9E1,2.504E3,1.05E2,5.1E1,1.954E3,3.1E1,5E1,2.296E3,2.08E2,8E0,9.7E1,3.2E1,1.9E1,1.878E3,7.6E1,9E0,2.2E1,2.6E1,2.4E1,2.129E3,1.67E2,9.4E1,1.14E2,4.7E1,5E1,2.1E1,1.1E1,7E0,1.2E1,8.54E2,1.024E3,5.3E1,2.3E1,6E0,3E0,1.1E1,1.1E1,2.3E1,1E0,1.34E2,1.995E3,8.5E1,8.2E1,2.4E1,7E1,1.01E2,1.3E1,1.8E1,3E0,9E0,2E0,7.99E2,5.5E1,9.79E2,4.5E1,7E0,4.6E1,1.3E1,1E1,4E0,2E0,7E0,4E0,1E0,1E1,5.9E1,7.5E1,1.908E3,8.7E1,7.3E1,1.2E1,7.6E1,6E0,6.5E1,5E0,6.3E1,3.8E1,6E0,7E0,2E0,1.6E1,2E0,1E0,6E0,3E0,7.97E2,2E0,3.8E1,1.7E1,9.1E2,6.9E1,1.9E1,2.6E1,3E0,4E0,4.4E1,2E0,7E0,3E0,1E0,1E0,3E0,7E0,2.1E1,3.8E1,7.1E1,4E0,1.901E3,7E0,4.3E1,4.4E1,4.3E1,3E1,1.1E1,1E0,7.4E1,2E0,5E0,1E0,2E0,3E0,5.1E1,1.2E1,2E0,3.6E1,2E0,5E0,1.4E1,2E0,5E0,1E0,1E0,2E0,7.67E2,3E1,1.8E1,2E1,1.5E1,2E0,1.13E2,7.97E2,9E0,6E1,4E0,1.5E1,2.3E1,3E0,2E0,1E0,2.3E1,2.1E1,1E0,6E0],"tree_param":{"num_deleted":"0","num_feature":"77","num_nodes":"161","size_leaf_vector":"1"}},{"base_weights":[-1.1668471E-2,-1.3070534E0,1.849762E0,-6.8423214E0,-1.0706478E0,-4.3847275E0,2.0060358E0,-3.318487E-1,-2.2975E-1,-5.213195E0,-7.9684985E-1,-6.085268E0,-1.6146797E0,2.162329E0,-3.834527E0,-5.44577E0,-4.0400343E0,-5.9165245E-1,-2.4773552E0,-7.8422904E-2,-2.904673E-1,2.9070437E-1,-3.5491343E0,1.4571213E0,2.3786838E0,-1.772719E0,-5.748853E0,-2.6263857E-1,-1.9644499E-1,-4.0984674E0,-5.2373324E-2,-2.341093E0,-5.0678366E-1,-2.050577E0,-5.6095877E0,1.5927309E-1,-7.742688E-1,-3.9072385E0,-7.6657506E-3,1.9091618E0,3.9826337E-1,2.1000369E0,2.8990448E0,-2.8182662E0,5.153441E-1,-2.893176E-1,-1.9730041E0,-2.1667385E-1,-1.4267552E-1,-2.5134802E0,4.560201E-1,-3.9176667E-1,-9.354503E-1,-2.9464157E0,-1.1162171E0,-2.171073E-1,-3.2702345E-1,-1.9752028E0,2.733193E-2,-1.8860393E0,-4.6034985E0,1.3379691E0,2.724261E0,-1.6674932E0,1.2548467E0,2.330779E0,1.4789921E0,5.699446E-1,3.0458734E0,-3.4159863E0,-5.809965E-1,1.5156924E0,-5.2359708E-2,-1.21251956E-1,-3.5881049E-3,-1.9026649E0,-3.0630348E0,1.3263998E0,-7.3984987E-3,-4.1538337E-1,1.0586263E0,-1.8128656E0,-9.110966E-2,-2.5275567E0,-4.7122817E0,-1.323078E0,1.6510296E0,-8.9327323E-1,-1.4812155E-1,8.8575155E-2,-1.7724422E-1,-2.3510136E-1,-6.135263E-2,2.075398E0,3.3493322E-1,2.8169498E0,-2.1261364E-1,7.4361897E-1,-2.8559406E0,2.047935E0,4.3206338E-2,2.3475242E0,-2.1557263E-1,1.5631937E0,-1.09607875E-1,-3.2509952E0,1.256417E0,3.1773858E0,4.5858422E-1,-1.0959993E-1,-2.1022733E-1,3.330972E-2,-5.0789077E-2,9.308947E-2,3.9060083E-1,-5.283256E-2,-1.7129189E-1,-1.7508279E-1,-9.498887E-2,9.993909E-3,8.3519116E-2,-2.113018E-2,1.8262263E-2,9.408223E-2,-1.2845191E-1,-8.118036E-2,-2.8936127E-1,1.1583916E-2,-6.866848E-2,-8.9435115E-2,-1.7661905E-1,-2.9377884E-1,-1.540206E-1,-8.890934E-2,-4.171373E-2,1.2744544E-1,-6.4572975E-2,-5.4091215E-2,-2.8325138E-3,-1.3373607E-1,1.0322467E-1,-7.226128E-2,5.252008E-2,1.06587484E-1,1.8587516E-1,1.6425024E-1,-8.255511E-2,-9.457555E-2,-1.9219E-1,1.06209025E-1,-2.3556687E-1,-8.110839E-2,4.6719853E-2,1.071393E-1,1.979595E-1,6.8713548E-3,8.136289E-2,-1.7804869E-1,-2.5902111E-2,7.6480195E-2,-1.9703019E-1,1.13697834E-1,1.6002339E-1,8.057044E-2,-2.5944384E-3,-2.9690532E-2,5.7228435E-2],"categories":[],"categories_nodes":[],"categories_segments":[],"categories_sizes":[],"default_left":[0,0,0,0,0,0,0,0,0,0,0,0,0,0,0,0,0,0,0,0,0,0,0,0,0,0,0,0,0,0,0,0,0,0,0,0,0,0,0,0,0,0,0,0,0,0,0,0,0,0,0,0,0,0,0,0,0,0,0,0,0,0,0,0,0,0,0,0,0,0,0,0,0,0,0,0,0,0,0,0,0,0,0,0,0,0,0,0,0,0,0,0,0,0,0,0,0,0,0,0,0,0,0,0,0,0,0,0,0,0,0,0,0,0,0,0,0,0,0,0,0,0,0,0,0,0,0,0,0,0,0,0,0,0,0,0,0,0,0,0,0,0,0,0,0,0,0,0,0,0,0,0,0,0,0,0,0,0,0,0,0,0,0,0,0,0,0],"id":5,"left_children":[1,3,5,7,9,11,13,-1,-1,15,17,19,21,23,25,27,29,31,33,-1,-1,35,37,39,41,43,45,-1,-1,47,-1,49,51,53,55,-1,57,59,-1,61,63,65,67,69,71,-1,73,-1,-1,75,77,79,81,83,85,-1,-1,87,-1,89,91,93,95,97,99,101,103,105,107,109,111,113,-1,-1,-1,115,117,119,-1,121,123,125,127,129,131,133,135,137,-1,-1,-1,-1,-1,139,141,143,-1,145,147,149,151,153,-1,155,-1,157,159,161,163,-1,-1,-1,-1,-1,165,-1,-1,-1,-1,-1,-1,-1,-1,-1,-1,-1,-1,-1,-1,-1,-1,-1,-1,-1,-1,-1,-1,-1,-1,-1,-1,-1,-1,-1,-1,-1,-1,-1,-1,-1,-1,-1,-1,-1,-1,-1,-1,-1,-1,-1,-1,-1,-1,-1,-1,-1,-1],"loss_changes":[1.1699484E4,3.7364883E3,1.9486035E3,1.5363281E1,3.1092825E3,2.2099261E2,1.781938E3,0E0,0E0,2.4382812E1,8.868301E2,2.244873E0,7.474933E1,2.853584E2,1.9110455E2,1.6669922E0,9.0374756E-1,3.3985583E2,3.6279236E2,0E0,0E0,3.891615E1,1.1488289E1,2.1319476E2,2.0372363E2,6.365159E1,2.7783447E1,0E0,0E0,2.8602905E0,0E0,5.2257935E1,1.0770776E2,2.0429602E2,1.1923462E1,0E0,1.5802521E1,3.9831238E0,0E0,1.4208118E2,2.4097394E2,1.3211572E2,1.6993701E2,2.2086044E1,1.6357838E1,0E0,4.40644E0,0E0,0E0,2.7739685E1,3.9462216E0,5.9698273E1,3.4284256E2,8.128516E1,7.259396E1,0E0,0E0,3.5480232E0,0E0,3.553753E1,1.3576279E0,1.3688306E2,9.8732666E1,1.1674291E2,9.216156E1,9.045923E1,8.675702E1,8.539667E1,1.59146E2,5.6104126E0,3.9874997E0,2.3646822E0,0E0,0E0,0E0,6.370967E1,2.7655823E1,1.1276426E0,0E0,4.697885E1,1.0559269E2,7.3825806E1,1.0995747E2,7.2778015E1,3.0296997E1,2.6801224E1,3.259703E1,7.889118E-1,0E0,0E0,0E0,0E0,0E0,6.9868225E1,1.1892777E2,7.0385254E1,0E0,1.0242601E2,1.9863647E1,9.8046936E1,6.7308586E1,7.750391E1,0E0,6.017621E1,0E0,5.164257E0,6.1367573E1,6.915723E1,1.5577772E1,0E0,0E0,0E0,0E0,0E0,3.3054957E0,0E0,0E0,0E0,0E0,0E0,0E0,0E0,0E0,0E0,0E0,0E0,0E0,0E0,0E0,0E0,0E0,0E0,0E0,0E0,0E0,0E0,0E0,0E0,0E0,0E0,0E0,0E0,0E0,0E0,0E0,0E0,0E0,0E0,0E0,0E0,0E0,0E0,0E0,0E0,0E0,0E0,0E0,0E0,0E0,0E0,0E0,0E0,0E0,0E0,0E0,0E0,0E0],"parents":[2147483647,0,0,1,1,2,2,3,3,4,4,5,5,6,6,9,9,10,10,11,11,12,12,13,13,14,14,15,15,16,16,17,17,18,18,21,21,22,22,23,23,24,24,25,25,26,26,29,29,31,31,32,32,33,33,34,34,36,36,37,37,39,39,40,40,41,41,42,42,43,43,44,44,46,46,49,49,50,50,51,51,52,52,53,53,54,54,57,57,59,59,60,60,61,61,62,62,63,63,64,64,65,65,66,66,67,67,68,68,69,69,70,70,71,71,75,75,76,76,77,77,79,79,80,80,81,81,82,82,83,83,84,84,85,85,86,86,87,87,93,93,94,94,95,95,97,97,98,98,99,99,100,100,101,101,103,103,105,105,106,106,107,107,108,108,114,114],"right_children":[2,4,6,8,10,12,14,-1,-1,16,18,20,22,24,26,28,30,32,34,-1,-1,36,38,40,42,44,46,-1,-1,48,-1,50,52,54,56,-1,58,60,-1,62,64,66,68,70,72,-1,74,-1,-1,76,78,80,82,84,86,-1,-1,88,-1,90,92,94,96,98,100,102,104,106,108,110,112,114,-1,-1,-1,116,118,120,-1,122,124,126,128,130,132,134,136,138,-1,-1,-1,-1,-1,140,142,144,-1,146,148,150,152,154,-1,156,-1,158,160,162,164,-1,-1,-1,-1,-1,166,-1,-1,-1,-1,-1,-1,-1,-1,-1,-1,-1,-1,-1,-1,-1,-1,-1,-1,-1,-1,-1,-1,-1,-1,-1,-1,-1,-1,-1,-1,-1,-1,-1,-1,-1,-1,-1,-1,-1,-1,-1,-1,-1,-1,-1,-1,-1,-1,-1,-1,-1,-1],"split_conditions":[1.1E1,1E0,8E0,7E0,1E0,1E0,1.7700002E0,-3.318487E-1,-2.2975E-1,1.9E1,1.6400002E0,1.3E1,1.8E1,1E0,1.8900002E0,2E0,5E0,1E0,1.9800003E0,-7.8422904E-2,-2.904673E-1,1.2300001E0,1.3500001E0,1E2,2.52E2,4E0,2E0,-2.6263857E-1,-1.9644499E-1,2.2700002E0,-5.2373324E-2,1.2000002E0,4E0,1E0,1E0,1.5927309E-1,1E0,1.9E1,-7.6657506E-3,3.1E1,1E2,1.6000001E0,1.33E2,1.46E2,1.74E2,-2.893176E-1,2.1E1,-2.1667385E-1,-1.4267552E-1,3E0,1.5090002E0,3E0,5E0,1.8660002E0,5E0,-2.171073E-1,-3.2702345E-1,1.3500001E0,2.733193E-2,1.2000002E0,1E0,1.2E1,4E0,7E1,3.01E2,1E0,7.03E2,1E2,5.1E3,8E1,1.8300002E0,1.8100002E0,-5.2359708E-2,-1.21251956E-1,-3.5881049E-3,2E0,5E0,1.4000001E0,-7.3984987E-3,1.6070001E0,4E0,1E0,3E1,1.3E1,1.9300002E0,1E0,1.7900002E0,1.2700001E0,-1.4812155E-1,8.8575155E-2,-1.7724422E-1,-2.3510136E-1,-6.135263E-2,1E1,2E1,1.3600001E0,-2.1261364E-1,1.2000002E0,1.3100002E0,1.6140002E0,2E2,1.85E2,-2.1557263E-1,2.6E1,-1.09607875E-1,7E0,1.14E2,1E0,9E2,-1.0959993E-1,-2.1022733E-1,3.330972E-2,-5.0789077E-2,9.308947E-2,1.8400002E0,-5.283256E-2,-1.7129189E-1,-1.7508279E-1,-9.498887E-2,9.993909E-3,8.3519116E-2,-2.113018E-2,1.8262263E-2,9.408223E-2,-1.2845191E-1,-8.118036E-2,-2.8936127E-1,1.1583916E-2,-6.866848E-2,-8.9435115E-2,-1.7661905E-1,-2.9377884E-1,-1.540206E-1,-8.890934E-2,-4.171373E-2,1.2744544E-1,-6.4572975E-2,-5.4091215E-2,-2.8325138E-3,-1.3373607E-1,1.0322467E-1,-7.226128E-2,5.252008E-2,1.06587484E-1,1.8587516E-1,1.6425024E-1,-8.255511E-2,-9.457555E-2,-1.9219E-1,1.06209025E-1,-2.3556687E-1,-8.110839E-2,4.6719853E-2,1.071393E-1,1.979595E-1,6.8713548E-3,8.136289E-2,-1.7804869E-1,-2.5902111E-2,7.6480195E-2,-1.9703019E-1,1.13697834E-1,1.6002339E-1,8.057044E-2,-2.5944384E-3,-2.9690532E-2,5.7228435E-2],"split_indices":[3,73,73,3,10,73,0,0,0,47,0,3,3,9,0,3,32,3,0,0,0,0,0,3,10,47,47,0,0,0,0,0,10,47,3,0,47,3,0,3,73,0,3,3,3,0,3,0,0,10,0,3,73,0,3,0,0,0,0,0,9,73,8,73,10,8,3,73,10,10,0,0,0,0,0,9,47,0,0,0,3,8,10,10,0,9,0,0,0,0,0,0,0,73,73,0,0,0,0,0,73,3,0,3,0,9,3,47,9,0,0,0,0,0,0,0,0,0,0,0,0,0,0,0,0,0,0,0,0,0,0,0,0,0,0,0,0,0,0,0,0,0,0,0,0,0,0,0,0,0,0,0,0,0,0,0,0,0,0,0,0,0,0,0,0,0,0],"split_type":[0,0,0,0,0,0,0,0,0,0,0,0,0,0,0,0,0,0,0,0,0,0,0,0,0,0,0,0,0,0,0,0,0,0,0,0,0,0,0,0,0,0,0,0,0,0,0,0,0,0,0,0,0,0,0,0,0,0,0,0,0,0,0,0,0,0,0,0,0,0,0,0,0,0,0,0,0,0,0,0,0,0,0,0,0,0,0,0,0,0,0,0,0,0,0,0,0,0,0,0,0,0,0,0,0,0,0,0,0,0,0,0,0,0,0,0,0,0,0,0,0,0,0,0,0,0,0,0,0,0,0,0,0,0,0,0,0,0,0,0,0,0,0,0,0,0,0,0,0,0,0,0,0,0,0,0,0,0,0,0,0,0,0,0,0,0,0],"sum_hessian":[4.85E3,2.86E3,1.99E3,1.16E2,2.744E3,4.8E1,1.942E3,1.02E2,1.4E1,1.69E2,2.575E3,2.9E1,1.9E1,1.892E3,5E1,1.38E2,3.1E1,2.296E3,2.79E2,1E0,2.8E1,1E1,9E0,4.46E2,1.446E3,2.5E1,2.5E1,1.21E2,1.7E1,3E1,1E0,1.05E2,2.191E3,2.47E2,3.2E1,2E0,8E0,8E0,1E0,3.12E2,1.34E2,9.45E2,5.01E2,1.7E1,8E0,2.2E1,3E0,1.8E1,1.2E1,9.9E1,6E0,1.729E3,4.62E2,1.25E2,1.22E2,2.1E1,1.1E1,4E0,4E0,3E0,5E0,1.85E2,1.27E2,3.9E1,9.5E1,6.87E2,2.58E2,3E1,4.71E2,1.3E1,4E0,5E0,3E0,2E0,1E0,4.9E1,5E1,2E0,4E0,1.702E3,2.7E1,2.26E2,2.36E2,1.03E2,2.2E1,1.14E2,8E0,3E0,1E0,1E0,2E0,4E0,1E0,1.06E2,7.9E1,1.26E2,1E0,1.3E1,2.6E1,5.7E1,3.8E1,6.86E2,1E0,2.53E2,5E0,4E0,2.6E1,4.48E2,2.3E1,8E0,5E0,1E0,3E0,3E0,2E0,3.5E1,1.4E1,2.9E1,2.1E1,1E0,1E0,1.633E3,6.9E1,2.2E1,5E0,2.23E2,3E0,1.9E2,4.6E1,7E1,3.3E1,9E0,1.3E1,4.8E1,6.6E1,6E0,2E0,2E0,1E0,2E0,1.04E2,2.3E1,5.6E1,8.7E1,3.9E1,6E0,7E0,1.7E1,9E0,5.6E1,1E0,1.3E1,2.5E1,6.64E2,2.2E1,2.7E1,2.26E2,3E0,1E0,2.5E1,1E0,1.06E2,3.42E2,6E0,1.7E1,1E0,1E0],"tree_param":{"num_deleted":"0","num_feature":"77","num_nodes":"167","size_leaf_vector":"1"}},{"base_weights":[-3.8002778E-3,-1.2659171E0,1.6715186E0,-6.451225E0,-9.751498E-1,1.8758991E0,-3.5825784E0,-6.0707893E0,-3.4346443E-1,-7.932741E-1,-5.260619E0,-3.1606462E0,1.9699717E0,-1.7735945E0,-4.6170053E0,-3.063815E-1,-2.4687916E-1,-6.503802E-1,-2.6904552E0,-1.3492459E-1,-5.4264235E0,-9.8405296E-1,-4.2986317E0,2.0211432E0,-2.0571797E-1,6.409459E-2,-2.5642278E0,-3.793036E0,-2.5642908E-1,-2.1581242E0,-5.115947E-1,-3.7588837E0,-1.5665405E0,-2.205124E-1,-2.825491E-1,-1.5506121E0,8.19998E-1,-2.0676412E-1,-4.66888E-2,2.1282666E0,-6.0667443E-1,-1.3898721E0,1.2185049E-1,-1.506647E-1,-1.5381958E0,-3.857708E0,-4.8102938E-2,-2.8728848E0,-1.3519701E0,-4.6866435E-1,-2.221448E0,-3.3841891E0,-5.524449E0,-1.016632E0,-2.817609E0,-1.1628616E0,-1.275633E-1,-2.0319647E-3,1.1221523E0,2.233571E0,8.00816E-1,3.0158946E-1,-2.7522326E0,-1.1851555E-1,4.510027E-2,3.850482E-2,-1.8911588E0,-1.843555E-1,-5.1142536E-2,-1.3884462E-1,-6.90588E-1,5.357812E-1,-1.4640435E0,-4.1211587E-1,-1.6098545E0,-1.8178067E0,-4.556597E0,-4.288282E0,-2.3672466E0,-2.8385192E-1,2.7458183E-2,-2.0542677E-1,-2.060586E0,-3.7658336E0,9.0152495E-2,-1.4284377E-2,-9.216988E-2,7.993744E-2,-8.241487E-4,1.9478918E0,2.4789789E0,-1.5850604E-1,1.4896948E0,2.8965375E0,-2.0173231E-1,-1.9715723E-1,-4.5748192E-1,-1.2672842E-1,-4.884371E-2,1.1586244E-2,-4.6365965E-2,6.087696E-2,-7.8844E-3,-1.1345431E-1,-5.153502E-2,-2.3400728E-2,1.0764242E-2,-1.23709284E-1,-3.5853226E-2,-1.4934358E-1,-6.585783E-2,-2.6150832E-1,-1.1327919E-1,-2.5645465E-1,-1.4228271E-1,3.8115837E-2,-1.3505094E-1,6.470653E-2,-6.585206E-2,-1.09156E-1,1.1156041E-1,-1.9336544E-1,8.3362795E-2,9.573879E-2,-4.288219E-2,1.3161877E-1,9.694091E-2,-7.145365E-2,1.8027121E-2,1.1488692E-1,3.8369626E-2,3.0049827E-2,1.841767E-1,-5.2207034E-2,7.656185E-2,-8.988352E-2,3.9066143E-2],"categories":[],"categories_nodes":[],"categories_segments":[],"categories_sizes":[],"default_left":[0,0,0,0,0,0,0,0,0,0,0,0,0,0,0,0,0,0,0,0,0,0,0,0,0,0,0,0,0,0,0,0,0,0,0,0,0,0,0,0,0,0,0,0,0,0,0,0,0,0,0,0,0,0,0,0,0,0,0,0,0,0,0,0,0,0,0,0,0,0,0,0,0,0,0,0,0,0,0,0,0,0,0,0,0,0,0,0,0,0,0,0,0,0,0,0,0,0,0,0,0,0,0,0,0,0,0,0,0,0,0,0,0,0,0,0,0,0,0,0,0,0,0,0,0,0,0,0,0,0,0,0,0,0,0,0,0],"id":6,"left_children":[1,3,5,7,9,11,13,15,-1,17,19,21,23,25,27,-1,-1,29,31,-1,33,35,37,39,-1,41,43,45,-1,47,49,51,53,-1,-1,55,57,-1,-1,59,61,63,-1,-1,65,67,-1,69,71,73,75,77,79,81,83,85,-1,-1,87,89,91,93,95,-1,-1,-1,97,-1,-1,-1,99,101,103,105,107,109,111,113,115,-1,-1,117,119,121,-1,-1,-1,-1,-1,123,125,127,129,131,133,-1,135,-1,-1,-1,-1,-1,-1,-1,-1,-1,-1,-1,-1,-1,-1,-1,-1,-1,-1,-1,-1,-1,-1,-1,-1,-1,-1,-1,-1,-1,-1,-1,-1,-1,-1,-1,-1,-1,-1,-1,-1],"loss_changes":[1.0206442E4,4.1444556E3,2.233855E3,3.2036133E0,2.0285618E3,9.5240625E2,1.3776971E2,4.9641113E0,0E0,6.768026E2,2.6426025E1,8.741641E1,6.457378E2,4.375248E1,1.3172974E1,0E0,0E0,4.862461E2,2.042555E2,0E0,1.3930176E1,1.5580921E1,3.6037903E0,5.490908E2,0E0,4.0365616E1,8.88797E0,1.0670471E0,0E0,1.0905249E2,1.5560437E2,4.0182007E1,5.6989212E1,0E0,0E0,1.8063259E0,1.0918286E0,0E0,0E0,2.596123E2,1.5088249E2,2.103133E1,0E0,0E0,9.870163E0,5.6814575E-1,0E0,1.6211426E1,2.0671692E1,1.3375793E2,4.0730225E1,5.9723816E1,4.7557495E1,5.208207E1,1.23976654E2,6.259775E0,0E0,0E0,2.0081286E0,1.1659863E2,9.209521E1,7.241949E1,7.421611E1,0E0,0E0,0E0,3.3714294E0,0E0,0E0,0E0,1.6296303E0,3.4230452E0,2.8426193E1,1.0931491E2,8.2844955E1,2.1603836E1,1.7250061E0,4.0930176E1,6.3455322E1,0E0,0E0,7.002951E1,3.6860146E1,4.9736786E1,0E0,0E0,0E0,0E0,0E0,2.0692847E2,1.1841992E2,4.4133633E1,5.007187E1,1.825711E1,8.002424E1,0E0,2.0338186E1,0E0,0E0,0E0,0E0,0E0,0E0,0E0,0E0,0E0,0E0,0E0,0E0,0E0,0E0,0E0,0E0,0E0,0E0,0E0,0E0,0E0,0E0,0E0,0E0,0E0,0E0,0E0,0E0,0E0,0E0,0E0,0E0,0E0,0E0,0E0,0E0,0E0,0E0,0E0,0E0],"parents":[2147483647,0,0,1,1,2,2,3,3,4,4,5,5,6,6,7,7,9,9,10,10,11,11,12,12,13,13,14,14,17,17,18,18,20,20,21,21,22,22,23,23,25,25,26,26,27,27,29,29,30,30,31,31,32,32,35,35,36,36,39,39,40,40,41,41,44,44,45,45,47,47,48,48,49,49,50,50,51,51,52,52,53,53,54,54,55,55,58,58,59,59,60,60,61,61,62,62,66,66,70,70,71,71,72,72,73,73,74,74,75,75,76,76,77,77,78,78,81,81,82,82,83,83,89,89,90,90,91,91,92,92,93,93,94,94,96,96],"right_children":[2,4,6,8,10,12,14,16,-1,18,20,22,24,26,28,-1,-1,30,32,-1,34,36,38,40,-1,42,44,46,-1,48,50,52,54,-1,-1,56,58,-1,-1,60,62,64,-1,-1,66,68,-1,70,72,74,76,78,80,82,84,86,-1,-1,88,90,92,94,96,-1,-1,-1,98,-1,-1,-1,100,102,104,106,108,110,112,114,116,-1,-1,118,120,122,-1,-1,-1,-1,-1,124,126,128,130,132,134,-1,136,-1,-1,-1,-1,-1,-1,-1,-1,-1,-1,-1,-1,-1,-1,-1,-1,-1,-1,-1,-1,-1,-1,-1,-1,-1,-1,-1,-1,-1,-1,-1,-1,-1,-1,-1,-1,-1,-1,-1,-1],"split_conditions":[1E1,1E0,1.7900002E0,1.4100002E0,1.9600002E0,1E0,1.9010003E0,4E0,-3.4346443E-1,8E0,1.9800003E0,4.9E1,1E0,1.7E1,8E0,-3.063815E-1,-2.4687916E-1,1E0,5E0,-1.3492459E-1,1E0,1.2000002E0,1E0,1E0,-2.0571797E-1,1.8300002E0,8.1E1,1E0,-2.5642908E-1,1.2000002E0,1.7100002E0,1.6700002E0,9E0,-2.205124E-1,-2.825491E-1,1E0,1.5690001E0,-2.0676412E-1,-4.66888E-2,1.6400002E0,8E1,1E0,1.2185049E-1,-1.506647E-1,8.5E1,5E0,-4.8102938E-2,3E0,1.6070001E0,1E0,1.8900002E0,1.2300001E0,1.9300002E0,1.3E1,1.1E1,1E0,-1.275633E-1,-2.0319647E-3,1.7100002E0,1E2,9.6E1,1.3E1,5E1,-1.1851555E-1,4.510027E-2,3.850482E-2,1.8300002E0,-1.843555E-1,-5.1142536E-2,-1.3884462E-1,5E0,1.5090002E0,1.7400001E0,2E0,2E0,1.7300001E0,2E0,4E0,3E0,-2.8385192E-1,2.7458183E-2,1.2300001E0,2E0,1E0,9.0152495E-2,-1.4284377E-2,-9.216988E-2,7.993744E-2,-8.241487E-4,8.3E1,9.7E1,1.6600002E0,9.6E1,1.9E1,1.3500001E0,-1.9715723E-1,1.2700001E0,-1.2672842E-1,-4.884371E-2,1.1586244E-2,-4.6365965E-2,6.087696E-2,-7.8844E-3,-1.1345431E-1,-5.153502E-2,-2.3400728E-2,1.0764242E-2,-1.23709284E-1,-3.5853226E-2,-1.4934358E-1,-6.585783E-2,-2.6150832E-1,-1.1327919E-1,-2.5645465E-1,-1.4228271E-1,3.8115837E-2,-1.3505094E-1,6.470653E-2,-6.585206E-2,-1.09156E-1,1.1156041E-1,-1.9336544E-1,8.3362795E-2,9.573879E-2,-4.288219E-2,1.3161877E-1,9.694091E-2,-7.145365E-2,1.8027121E-2,1.1488692E-1,3.8369626E-2,3.0049827E-2,1.841767E-1,-5.2207034E-2,7.656185E-2,-8.988352E-2,3.9066143E-2],"split_indices":[73,73,0,0,0,2,0,2,0,2,0,73,45,2,2,0,0,2,73,0,2,0,33,44,0,0,2,33,0,0,0,0,73,0,0,33,0,0,0,0,73,2,0,0,2,32,0,73,0,44,0,0,0,2,2,74,0,0,0,73,73,73,44,0,0,0,0,0,0,0,73,0,0,2,73,0,73,73,73,0,0,0,5,43,0,0,0,0,0,2,2,0,2,2,0,0,0,0,0,0,0,0,0,0,0,0,0,0,0,0,0,0,0,0,0,0,0,0,0,0,0,0,0,0,0,0,0,0,0,0,0,0,0,0,0,0,0],"split_type":[0,0,0,0,0,0,0,0,0,0,0,0,0,0,0,0,0,0,0,0,0,0,0,0,0,0,0,0,0,0,0,0,0,0,0,0,0,0,0,0,0,0,0,0,0,0,0,0,0,0,0,0,0,0,0,0,0,0,0,0,0,0,0,0,0,0,0,0,0,0,0,0,0,0,0,0,0,0,0,0,0,0,0,0,0,0,0,0,0,0,0,0,0,0,0,0,0,0,0,0,0,0,0,0,0,0,0,0,0,0,0,0,0,0,0,0,0,0,0,0,0,0,0,0,0,0,0,0,0,0,0,0,0,0,0,0,0],"sum_hessian":[4.825E3,2.752E3,2.073E3,1.45E2,2.607E3,1.996E3,7.7E1,1.06E2,3.9E1,2.502E3,1.05E2,3.6E1,1.96E3,2.9E1,4.8E1,6.4E1,4.2E1,2.328E3,1.74E2,8E0,9.7E1,1.3E1,2.3E1,1.945E3,1.5E1,9E0,2E1,2.7E1,2.1E1,1.95E2,2.133E3,8.8E1,8.6E1,4.7E1,5E1,1E1,3E0,2.2E1,1E0,1.869E3,7.6E1,6E0,3E0,1.1E1,9E0,2.6E1,1E0,1.02E2,9.3E1,2.082E3,5.1E1,7.5E1,1.3E1,6.1E1,2.5E1,9E0,1E0,1E0,2E0,1.731E3,1.38E2,5.4E1,2.2E1,4E0,2E0,1E0,8E0,2.5E1,1E0,9.8E1,4E0,5E0,8.8E1,1.985E3,9.7E1,4.5E1,6E0,3.8E1,3.7E1,1.2E1,1E0,3.5E1,2.6E1,2.1E1,4E0,5E0,4E0,1E0,1E0,8.04E2,9.27E2,5.8E1,8E1,8E0,4.6E1,1.3E1,9E0,3E0,5E0,1E0,3E0,2E0,3E0,2.3E1,6.5E1,1.751E3,2.34E2,4.3E1,5.4E1,9E0,3.6E1,3E0,3E0,1.8E1,2E1,5E0,3.2E1,1.5E1,2E1,2.5E1,1E0,2E1,1E0,7.8E2,2.4E1,5.2E2,4.07E2,1.6E1,4.2E1,3.2E1,4.8E1,3E0,5E0,3.1E1,1.5E1,4E0,5E0],"tree_param":{"num_deleted":"0","num_feature":"77","num_nodes":"137","size_leaf_vector":"1"}},{"base_weights":[-1.0272032E-2,-1.1640595E0,1.4987437E0,-8.2484967E-1,-3.3144212E0,1.764221E0,-2.2210584E0,-6.2074596E-1,-3.4109013E0,-4.2156315E0,-6.481274E-2,1.7858753E0,-5.571091E0,-2.378357E0,1.749223E-1,-5.3892344E-1,-2.7782135E0,-2.8439042E-1,-2.1291902E0,-3.7896714E0,-4.9719334E0,1.7602992E-1,-1.7902632E-1,1.1806241E0,1.9739425E0,-3.0768386E-1,-1.1344772E-1,-3.623348E0,-1.9156309E0,-1.9172112E0,-4.2906016E-1,-1.3964881E-1,1.6311903E0,-1.4312977E0,-4.543606E0,-3.8502E0,2.5906563E-3,-2.514391E-1,-3.5945399E0,-1.6486296E-1,1.1799995E-1,1.4219924E0,-1.6719535E-2,1.543636E0,2.2241502E0,-3.020509E0,-2.5172386E-1,-1.1604313E0,-2.5152516E0,-1.3067222E-1,-4.787391E-2,-4.20551E-1,-2.109944E-1,6.95988E-1,1.04266785E-1,-1.9247292E0,8.878514E-1,-2.2415166E-1,2.5697624E-2,-3.9059596E0,-1.850421E0,1.8496942E-2,-2.7501887E-2,6.9620855E-2,-3.8677511E0,1.043229E0,-8.749886E-1,5.73059E-1,2.0178351E0,-2.4761945E-1,1.6012518E0,1.8607917E0,-1.6651365E0,3.2211869E0,1.8288401E0,-2.3507237E0,-2.1079232E-1,-9.5164186E-1,-1.8356037E-1,-2.3237418E-1,-1.4201376E0,-4.141158E-1,-1.6272865E-1,1.0122692E-1,-5.21588E-2,-1.5776827E0,-2.2188175E-1,1.09711E-1,-1.0311041E0,-4.085124E0,-3.4298909E0,6.348562E-2,-1.55184E-1,-2.6259975E0,-4.4377365E0,1.1967529E-1,4.650163E-1,-6.5315396E-1,-1.7338695E-1,1.2062105E0,-1.5080944E0,1.860947E0,2.0949742E-1,-3.9081925E-1,1.4479965E-1,2.0024095E0,-4.721635E-2,2.194511E0,1.53693E-1,-9.855288E-1,-3.342304E0,3.758077E0,2.3121965E0,1.8510939E0,-1.1098983E-1,-3.025756E0,-4.7197554E-1,-6.0628545E-1,-1.2877415E-1,-1.6174357E-1,-3.1131566E0,-1.7543355E-2,-3.753745E-2,-4.270788E-2,-8.963004E-2,-7.349243E-2,-1.8746618E-2,-1.8396673E-1,-2.8857234E-1,-3.3877064E-2,-1.8172412E-1,3.288625E-2,-1.7945657E-2,-5.252144E-2,-1.838229E-1,-2.3421435E-1,-7.952346E-2,-4.923609E-2,8.449862E-2,-1.6583265E-1,-1.9796332E-2,2.5031688E-2,9.863493E-2,-7.670098E-2,7.221318E-2,9.176671E-2,-1.11507185E-1,-1.1343814E-2,-1.2793374E-1,2.5897704E-2,1.0990611E-1,1.7913188E-1,9.465158E-2,-2.4125973E-2,3.694728E-2,-1.6983032E-1,-2.6203537E-2,-2.4598418E-1,-8.037491E-2,2.4975967E-1,1.6302978E-1,7.541331E-2,1.3203496E-1,1.152167E-1,8.0010556E-2,-1.022096E-1,-2.0977962E-1,5.8515504E-2,-6.616591E-2,-8.591153E-2,1.9775655E-2,-6.270948E-2,9.121125E-2,-2.670122E-1,-3.5136346E-2],"categories":[],"categories_nodes":[],"categories_segments":[],"categories_sizes":[],"default_left":[0,0,0,0,0,0,0,0,0,0,0,0,0,0,0,0,0,0,0,0,0,0,0,0,0,0,0,0,0,0,0,0,0,0,0,0,0,0,0,0,0,0,0,0,0,0,0,0,0,0,0,0,0,0,0,0,0,0,0,0,0,0,0,0,0,0,0,0,0,0,0,0,0,0,0,0,0,0,0,0,0,0,0,0,0,0,0,0,0,0,0,0,0,0,0,0,0,0,0,0,0,0,0,0,0,0,0,0,0,0,0,0,0,0,0,0,0,0,0,0,0,0,0,0,0,0,0,0,0,0,0,0,0,0,0,0,0,0,0,0,0,0,0,0,0,0,0,0,0,0,0,0,0,0,0,0,0,0,0,0,0,0,0,0,0,0,0,0,0,0,0,0,0,0,0],"id":7,"left_children":[1,3,5,7,9,11,13,15,17,19,21,23,25,27,-1,29,31,-1,33,35,37,39,-1,41,43,-1,-1,45,47,49,51,-1,53,55,57,59,61,-1,63,65,-1,67,69,71,73,75,-1,77,79,-1,-1,81,-1,83,-1,85,87,-1,-1,89,91,-1,-1,-1,93,95,97,99,101,103,105,107,109,111,113,115,-1,117,-1,-1,119,121,-1,-1,-1,123,-1,-1,125,127,129,131,-1,133,135,-1,137,139,-1,141,143,145,-1,147,-1,149,-1,151,153,155,157,159,161,163,-1,165,167,169,-1,171,173,-1,-1,-1,-1,-1,-1,-1,-1,-1,-1,-1,-1,-1,-1,-1,-1,-1,-1,-1,-1,-1,-1,-1,-1,-1,-1,-1,-1,-1,-1,-1,-1,-1,-1,-1,-1,-1,-1,-1,-1,-1,-1,-1,-1,-1,-1,-1,-1,-1,-1,-1,-1,-1,-1],"loss_changes":[8.418143E3,1.9958882E3,2.0727793E3,1.2477671E3,1.0920869E3,3.2064307E2,1.3972113E2,3.8616113E2,5.724641E2,7.522705E1,7.461472E1,2.1974756E2,2.6740723E0,7.198328E1,0E0,3.1974036E2,7.292041E1,0E0,1.9232709E2,4.3852295E1,3.383911E1,6.2488964E1,0E0,1.3440912E2,1.5666553E2,0E0,0E0,2.1419312E1,4.3270203E1,1.1814905E2,6.58952E1,0E0,6.5265465E-1,1.0813263E2,3.2450134E1,1.3735596E1,1.1493702E0,0E0,4.0398346E1,6.0107716E1,0E0,1.9460016E2,2.9910065E1,5.628225E2,3.6381104E2,1.7900452E1,0E0,2.3220684E1,1.4192725E2,0E0,0E0,3.6911713E1,0E0,1.0286882E1,0E0,6.72702E1,4.9590973E1,0E0,0E0,1.512207E0,1.9653198E1,0E0,0E0,0E0,5.3332825E0,2.1411411E1,2.5057419E1,2.139664E2,7.8583496E1,3.4567894E1,1.24650955E1,2.8507837E2,5.369684E1,1.2063794E2,6.7221436E1,2.6472664E1,0E0,2.6129059E1,0E0,0E0,8.471587E1,3.043518E1,0E0,0E0,0E0,1.3688904E1,0E0,0E0,2.0698786E0,2.0592041E1,6.3435364E1,1.4003687E0,0E0,1.5015106E1,1.4033905E1,0E0,4.2202156E1,2.6524805E1,0E0,7.34218E1,1.6830956E1,8.791144E1,0E0,2.3035885E1,0E0,3.1002312E0,0E0,1.1472412E2,3.54141E1,3.9601265E1,3.4268738E1,5.5868164E1,3.1016724E1,5.5751465E1,0E0,9.870575E0,1.2999552E1,4.9698853E1,0E0,6.1748623E1,9.901889E1,0E0,0E0,0E0,0E0,0E0,0E0,0E0,0E0,0E0,0E0,0E0,0E0,0E0,0E0,0E0,0E0,0E0,0E0,0E0,0E0,0E0,0E0,0E0,0E0,0E0,0E0,0E0,0E0,0E0,0E0,0E0,0E0,0E0,0E0,0E0,0E0,0E0,0E0,0E0,0E0,0E0,0E0,0E0,0E0,0E0,0E0,0E0,0E0,0E0,0E0,0E0,0E0,0E0,0E0],"parents":[2147483647,0,0,1,1,2,2,3,3,4,4,5,5,6,6,7,7,8,8,9,9,10,10,11,11,12,12,13,13,15,15,16,16,18,18,19,19,20,20,21,21,23,23,24,24,27,27,28,28,29,29,30,30,32,32,33,33,34,34,35,35,36,36,38,38,39,39,41,41,42,42,43,43,44,44,45,45,47,47,48,48,51,51,53,53,55,55,56,56,59,59,60,60,64,64,65,65,66,66,67,67,68,68,69,69,70,70,71,71,72,72,73,73,74,74,75,75,77,77,80,80,81,81,85,85,88,88,89,89,90,90,91,91,93,93,94,94,96,96,97,97,99,99,100,100,101,101,103,103,105,105,107,107,108,108,109,109,110,110,111,111,112,112,113,113,115,115,116,116,117,117,119,119,120,120],"right_children":[2,4,6,8,10,12,14,16,18,20,22,24,26,28,-1,30,32,-1,34,36,38,40,-1,42,44,-1,-1,46,48,50,52,-1,54,56,58,60,62,-1,64,66,-1,68,70,72,74,76,-1,78,80,-1,-1,82,-1,84,-1,86,88,-1,-1,90,92,-1,-1,-1,94,96,98,100,102,104,106,108,110,112,114,116,-1,118,-1,-1,120,122,-1,-1,-1,124,-1,-1,126,128,130,132,-1,134,136,-1,138,140,-1,142,144,146,-1,148,-1,150,-1,152,154,156,158,160,162,164,-1,166,168,170,-1,172,174,-1,-1,-1,-1,-1,-1,-1,-1,-1,-1,-1,-1,-1,-1,-1,-1,-1,-1,-1,-1,-1,-1,-1,-1,-1,-1,-1,-1,-1,-1,-1,-1,-1,-1,-1,-1,-1,-1,-1,-1,-1,-1,-1,-1,-1,-1,-1,-1,-1,-1,-1,-1,-1,-1],"split_conditions":[4.5E1,2E0,1E0,1E0,2.1E1,7E0,1E0,3.4E1,1E1,6E0,1E1,1E0,1.01E2,5E0,1.749223E-1,5E0,1E0,-2.8439042E-1,4E0,1E0,1E1,3.4E1,-1.7902632E-1,5.19E2,4.15E2,-3.0768386E-1,-1.1344772E-1,1E0,1.6E1,1E0,2E0,-1.3964881E-1,3.9E1,2.6E1,6E0,1E0,9E0,-2.514391E-1,3E0,2.7E1,1.1799995E-1,8E1,7.5E3,2.4E1,4.91E2,1.26E2,-2.5172386E-1,3.7E1,2.07E2,-1.3067222E-1,-4.787391E-2,1E0,-2.109944E-1,3.6E1,1.04266785E-1,3E0,2.8E1,-2.2415166E-1,2.5697624E-2,9E0,5.1E1,1.8496942E-2,-2.7501887E-2,6.9620855E-2,1.2E1,2.3E1,4E0,6E1,5.12E2,1E0,1E0,1.2E2,5.2E1,4.6E1,1E0,1.17E2,-2.1079232E-1,1.38E2,-1.8356037E-1,-2.3237418E-1,4.97E2,1.2E1,-1.6272865E-1,1.0122692E-1,-5.21588E-2,1.2E1,-2.2188175E-1,1.09711E-1,2E0,6E0,1.1E1,2.1E1,-1.55184E-1,4E0,6E0,1.1967529E-1,2.6E1,2.9E1,-1.7338695E-1,5.7E1,1E0,4.93E2,2.0949742E-1,4.906E3,1.4479965E-1,1.1831E4,-4.721635E-2,3E0,4E0,9.5E1,6.4E1,1.4E1,4.39E2,3.1E1,-1.1098983E-1,6.3E1,2E0,7.5E1,-1.2877415E-1,4.18E2,6.75E2,-1.7543355E-2,-3.753745E-2,-4.270788E-2,-8.963004E-2,-7.349243E-2,-1.8746618E-2,-1.8396673E-1,-2.8857234E-1,-3.3877064E-2,-1.8172412E-1,3.288625E-2,-1.7945657E-2,-5.252144E-2,-1.838229E-1,-2.3421435E-1,-7.952346E-2,-4.923609E-2,8.449862E-2,-1.6583265E-1,-1.9796332E-2,2.5031688E-2,9.863493E-2,-7.670098E-2,7.221318E-2,9.176671E-2,-1.11507185E-1,-1.1343814E-2,-1.2793374E-1,2.5897704E-2,1.0990611E-1,1.7913188E-1,9.465158E-2,-2.4125973E-2,3.694728E-2,-1.6983032E-1,-2.6203537E-2,-2.4598418E-1,-8.037491E-2,2.4975967E-1,1.6302978E-1,7.541331E-2,1.3203496E-1,1.152167E-1,8.0010556E-2,-1.022096E-1,-2.0977962E-1,5.8515504E-2,-6.616591E-2,-8.591153E-2,1.9775655E-2,-6.270948E-2,9.121125E-2,-2.670122E-1,-3.5136346E-2],"split_indices":[1,9,44,44,1,8,26,1,1,1,9,9,1,44,0,1,7,0,44,54,1,1,0,1,1,0,0,9,44,9,8,0,1,1,44,27,54,0,9,1,0,1,1,9,1,1,0,9,1,0,0,14,0,1,0,44,1,0,0,9,9,0,0,0,1,1,44,1,1,8,26,1,9,9,26,1,0,1,0,0,1,1,0,0,0,1,0,0,44,9,9,9,0,9,9,0,1,1,0,1,8,1,0,1,0,1,0,9,9,1,9,9,1,9,0,1,44,1,0,1,1,0,0,0,0,0,0,0,0,0,0,0,0,0,0,0,0,0,0,0,0,0,0,0,0,0,0,0,0,0,0,0,0,0,0,0,0,0,0,0,0,0,0,0,0,0,0,0,0,0,0,0,0,0,0],"split_type":[0,0,0,0,0,0,0,0,0,0,0,0,0,0,0,0,0,0,0,0,0,0,0,0,0,0,0,0,0,0,0,0,0,0,0,0,0,0,0,0,0,0,0,0,0,0,0,0,0,0,0,0,0,0,0,0,0,0,0,0,0,0,0,0,0,0,0,0,0,0,0,0,0,0,0,0,0,0,0,0,0,0,0,0,0,0,0,0,0,0,0,0,0,0,0,0,0,0,0,0,0,0,0,0,0,0,0,0,0,0,0,0,0,0,0,0,0,0,0,0,0,0,0,0,0,0,0,0,0,0,0,0,0,0,0,0,0,0,0,0,0,0,0,0,0,0,0,0,0,0,0,0,0,0,0,0,0,0,0,0,0,0,0,0,0,0,0,0,0,0,0,0,0,0,0],"sum_hessian":[4.833E3,2.739E3,2.094E3,2.367E3,3.72E2,1.955E3,1.39E2,2.195E3,1.72E2,2.91E2,8.1E1,1.95E3,5E0,1.36E2,3E0,2.116E3,7.9E1,5.5E1,1.17E2,1.9E2,1.01E2,7.7E1,4E0,4.64E2,1.486E3,3E0,2E0,3.5E1,1.01E2,1.55E2,1.961E3,7.6E1,3E0,9.2E1,2.5E1,1.87E2,3E0,7.7E1,2.4E1,6.8E1,9E0,3.86E2,7.8E1,5.49E2,9.37E2,2.8E1,7E0,4.6E1,5.5E1,7.8E1,7.7E1,1.958E3,3E0,2E0,1E0,7.6E1,1.6E1,2.4E1,1E0,1.81E2,6E0,2E0,1E0,1E0,2.3E1,2.5E1,4.3E1,1.6E2,2.26E2,6.9E1,9E0,5E2,4.9E1,2.64E2,6.73E2,2.1E1,7E0,4.4E1,2E0,1.6E1,3.9E1,1.955E3,3E0,1E0,1E0,6.9E1,7E0,9E0,7E0,1.26E2,5.5E1,3E0,3E0,9E0,1.4E1,6E0,1.9E1,4.1E1,2E0,1.23E2,3.7E1,2.14E2,1.2E1,6.7E1,2E0,8E0,1E0,4.18E2,8.2E1,3.6E1,1.3E1,1.64E2,1E2,6.7E2,3E0,1.5E1,6E0,3.8E1,6E0,2.3E1,1.6E1,1.769E3,1.86E2,2.4E1,4.5E1,3E0,4E0,1.19E2,7E0,8E0,4.7E1,1E0,2E0,5E0,4E0,1.1E1,3E0,9E0,1E1,2E0,3.9E1,7.1E1,5.2E1,3.6E1,1E0,2.1E2,4E0,6.4E1,3E0,2E0,6E0,4E1,3.78E2,4E1,4.2E1,4E0,3.2E1,5E0,8E0,2.3E1,1.41E2,4.3E1,5.7E1,1.3E2,5.4E2,1.1E1,4E0,2E0,4E0,1.7E1,2.1E1,1.5E1,8E0,7E0,9E0],"tree_param":{"num_deleted":"0","num_feature":"77","num_nodes":"175","size_leaf_vector":"1"}},{"base_weights":[-3.2428526E-3,-1.1290736E0,1.6079878E0,-4.773081E0,-8.7945384E-1,1.7456594E0,-3.575033E0,-2.3524445E-1,-3.5218189E0,-6.872191E-1,-2.4346104E0,1.799106E0,-2.0796917E-1,-4.425789E0,-1.690301E-3,-1.861339E-1,-1.21095516E-1,-1.5891142E0,-3.6428207E-1,-2.042879E0,-5.185271E0,1.4319323E0,2.185891E0,-2.8225393E0,-5.51062E0,6.24017E-1,-8.8279426E-2,-2.1954944E0,-7.71694E-1,-4.014527E-1,5.3673375E-1,-2.9714339E0,-1.0236971E0,-3.0714655E-1,-1.893842E-1,-2.843413E0,1.4871286E0,2.2478616E0,6.160673E-1,-3.3924594E0,-5.48271E-1,-2.6756468E-1,-1.0989294E-1,8.392594E-2,-2.543899E-1,-1.8997015E0,-3.533854E0,-4.9460799E-1,-2.8830445E0,-3.519319E-1,-1.9517326E0,-2.1681327E-1,6.782214E-1,-2.593404E0,-4.456505E0,-1.220234E0,1.6450257E0,-5.1970167E0,9.220435E-2,1.9515365E0,9.045442E-1,2.4413264E0,1.6686345E0,-2.8427985E0,1.2453525E0,-3.5238047E0,-3.6510956E-2,3.577168E-2,-5.0097395E-2,7.3113185E-1,-4.370775E-2,-1.283093E0,-2.966886E0,-4.6987796E0,-1.7634456E0,-2.7806064E-1,-2.4229255E0,-4.4178596E0,-1.941806E0,-3.6163563E-1,1.7379072E-1,-3.4579782E0,-1.4632771E0,9.358967E-1,-4.912931E-2,-2.0422285E0,-1.7247683E-1,-2.4289049E-1,-1.038796E-1,-1.124907E0,-2.0998552E-1,2.6595628E0,-1.2705693E0,-1.7521865E0,-3.1149396E-1,2.0089066E0,-4.646218E0,-2.4495301E0,9.5691997E-1,1.9847027E0,3.1256716E0,-1.4137605E0,2.0533092E0,6.671015E-2,-2.0277283E-1,1.539504E0,-9.92321E-2,-2.1060624E0,-1.9164309E-1,5.0795667E-2,7.5014494E-4,-1.1188216E-1,-2.4941398E-2,-2.4973659E-1,-1.2932988E-1,-2.2762728E-1,1.501173E-2,1.5102786E-2,-1.327158E-1,-1.2107961E-1,-7.7880737E-3,-1.4752604E-1,-5.2022316E-2,-4.909964E-2,-2.3741995E-1,-3.1108514E-3,-1.87927E-1,-1.858718E-2,1.8243933E-2,-2.293483E-1,2.8449109E-2,-7.610487E-2,4.9433216E-2,1.7864445E-2,7.76116E-2,-3.0035026E-2,6.27695E-2,-2.5843805E-1,-8.3194464E-2,1.7190626E-2,-5.9707996E-2,1.7232488E-1,4.642847E-2,7.2628087E-3,-9.683971E-2,-8.34234E-4,-1.092497E-1,7.683553E-2,1.1915222E-1,-9.1852844E-2,-2.7210805E-1,-1.7140897E-1,1.7044509E-2,2.6485346E-2,7.085987E-2,1.0183502E-1,7.172944E-2,1.3123775E-1,2.0020016E-1,1.2809206E-3,-9.146825E-2,1.0024227E-1,-1.1529491E-1,1.7637517E-2,-1.2934358E-2,4.609608E-2,1.2851441E-1,-1.2951124E-1,-5.1346898E-2],"categories":[],"categories_nodes":[],"categories_segments":[],"categories_sizes":[],"default_left":[0,0,0,0,0,0,0,0,0,0,0,0,0,0,0,0,0,0,0,0,0,0,0,0,0,0,0,0,0,0,0,0,0,0,0,0,0,0,0,0,0,0,0,0,0,0,0,0,0,0,0,0,0,0,0,0,0,0,0,0,0,0,0,0,0,0,0,0,0,0,0,0,0,0,0,0,0,0,0,0,0,0,0,0,0,0,0,0,0,0,0,0,0,0,0,0,0,0,0,0,0,0,0,0,0,0,0,0,0,0,0,0,0,0,0,0,0,0,0,0,0,0,0,0,0,0,0,0,0,0,0,0,0,0,0,0,0,0,0,0,0,0,0,0,0,0,0,0,0,0,0,0,0,0,0,0,0,0,0,0,0,0,0,0,0,0,0,0,0],"id":8,"left_children":[1,3,5,7,9,11,13,-1,15,17,19,21,-1,23,25,-1,-1,27,29,31,33,35,37,39,41,43,-1,45,47,49,51,53,55,-1,-1,57,59,61,63,65,67,-1,-1,-1,69,71,73,75,77,79,81,-1,83,85,87,89,91,93,-1,95,97,99,101,103,105,107,-1,-1,-1,109,-1,111,113,115,117,119,121,123,125,127,-1,129,131,133,135,137,-1,-1,-1,139,-1,141,143,145,-1,147,149,151,153,155,157,159,161,163,-1,165,-1,167,-1,-1,-1,-1,-1,-1,-1,-1,-1,-1,-1,-1,-1,-1,-1,-1,-1,-1,-1,-1,-1,-1,-1,-1,-1,-1,-1,-1,-1,-1,-1,-1,-1,-1,-1,-1,-1,-1,-1,-1,-1,-1,-1,-1,-1,-1,-1,-1,-1,-1,-1,-1,-1,-1,-1,-1,-1,-1,-1,-1,-1],"loss_changes":[8.80684E3,2.5954849E3,1.4312104E3,3.5501465E1,7.9833105E2,6.4973145E2,1.5807465E2,0E0,3.0590515E0,6.934824E2,3.0619788E2,2.7096338E2,0E0,5.7494873E1,1.4087997E1,0E0,0E0,3.0958484E2,5.902623E1,2.4206702E2,2.9829895E1,2.3855994E2,8.986621E1,2.2766891E1,5.574341E-1,9.63751E0,0E0,1.3580249E2,1.5594594E2,1.2882593E2,5.413185E1,6.423157E1,6.757008E1,0E0,0E0,1.5721829E2,2.6365088E2,9.7004395E1,8.407498E1,2.4159393E0,4.199903E0,0E0,0E0,0E0,4.6744833E0,1.9162964E2,1.23707214E2,9.912599E1,3.6204834E1,6.562482E1,3.319818E1,0E0,1.2977982E1,5.775763E1,3.0120422E1,3.119397E1,3.0000969E1,3.2734436E1,0E0,2.1562402E2,7.911282E1,2.0441382E2,2.7443268E2,2.5974667E1,3.484579E1,2.401291E0,0E0,0E0,0E0,7.3283565E-1,0E0,1.5561432E2,3.9927307E1,2.9055542E1,6.0587067E1,5.5346375E1,1.9137268E1,1.8230316E1,8.073923E1,4.157373E1,0E0,7.227339E1,1.7783325E1,1.965078E1,1.6372461E1,6.0820282E1,0E0,0E0,0E0,2.5398636E1,0E0,8.160622E0,3.6950383E0,3.9287252E0,0E0,1.0236304E2,4.0730286E0,2.489354E1,9.252893E1,3.0653809E1,8.942529E1,1.999765E1,7.828168E1,4.1975093E-1,0E0,1.734623E1,0E0,9.393387E-1,0E0,0E0,0E0,0E0,0E0,0E0,0E0,0E0,0E0,0E0,0E0,0E0,0E0,0E0,0E0,0E0,0E0,0E0,0E0,0E0,0E0,0E0,0E0,0E0,0E0,0E0,0E0,0E0,0E0,0E0,0E0,0E0,0E0,0E0,0E0,0E0,0E0,0E0,0E0,0E0,0E0,0E0,0E0,0E0,0E0,0E0,0E0,0E0,0E0,0E0,0E0,0E0,0E0,0E0,0E0,0E0,0E0,0E0,0E0,0E0,0E0],"parents":[2147483647,0,0,1,1,2,2,3,3,4,4,5,5,6,6,8,8,9,9,10,10,11,11,13,13,14,14,17,17,18,18,19,19,20,20,21,21,22,22,23,23,24,24,25,25,27,27,28,28,29,29,30,30,31,31,32,32,35,35,36,36,37,37,38,38,39,39,40,40,44,44,45,45,46,46,47,47,48,48,49,49,50,50,52,52,53,53,54,54,55,55,56,56,57,57,59,59,60,60,61,61,62,62,63,63,64,64,65,65,69,69,71,71,72,72,73,73,74,74,75,75,76,76,77,77,78,78,79,79,81,81,82,82,83,83,84,84,85,85,89,89,91,91,92,92,93,93,95,95,96,96,97,97,98,98,99,99,100,100,101,101,102,102,103,103,105,105,107,107],"right_children":[2,4,6,8,10,12,14,-1,16,18,20,22,-1,24,26,-1,-1,28,30,32,34,36,38,40,42,44,-1,46,48,50,52,54,56,-1,-1,58,60,62,64,66,68,-1,-1,-1,70,72,74,76,78,80,82,-1,84,86,88,90,92,94,-1,96,98,100,102,104,106,108,-1,-1,-1,110,-1,112,114,116,118,120,122,124,126,128,-1,130,132,134,136,138,-1,-1,-1,140,-1,142,144,146,-1,148,150,152,154,156,158,160,162,164,-1,166,-1,168,-1,-1,-1,-1,-1,-1,-1,-1,-1,-1,-1,-1,-1,-1,-1,-1,-1,-1,-1,-1,-1,-1,-1,-1,-1,-1,-1,-1,-1,-1,-1,-1,-1,-1,-1,-1,-1,-1,-1,-1,-1,-1,-1,-1,-1,-1,-1,-1,-1,-1,-1,-1,-1,-1,-1,-1,-1,-1,-1,-1,-1],"split_conditions":[1.1E1,1E0,1.7700002E0,1.9E1,1.6400002E0,1E0,4E0,-2.3524445E-1,2.2700002E0,1.4500002E0,1.9800003E0,1.61E2,-2.0796917E-1,1.8900002E0,1.9E1,-1.861339E-1,-1.21095516E-1,5E0,1.4E1,1E0,1E0,1.6E1,1.6900002E0,1.46E2,1.85E2,1.8100002E0,-8.8279426E-2,1.2300001E0,1.2800001E0,5E0,1.4810002E0,1.8660002E0,5E0,-3.0714655E-1,-1.893842E-1,1.2000002E0,5.9E1,2.99E2,1E2,1.8660002E0,1.8300002E0,-2.6756468E-1,-1.0989294E-1,8.392594E-2,1.67E2,4E0,3E0,3E1,1.3100002E0,4E0,1.5400002E0,-2.1681327E-1,1.6070001E0,1.3E1,1.9600002E0,1E0,1.7900002E0,2.1E1,9.220435E-2,1E0,1.9E1,2.55E2,1.72E2,1.7100002E0,1.83E3,2.1E1,-3.6510956E-2,3.577168E-2,-5.0097395E-2,1.8660002E0,-4.370775E-2,1E0,5E0,1.3E1,4E0,7E0,1E0,1E1,1.3600001E0,1.6070001E0,1.7379072E-1,8E0,1.6330001E0,1.5800002E0,1E0,2E0,-1.7247683E-1,-2.4289049E-1,-1.038796E-1,2E0,-2.0998552E-1,2E0,1.8300002E0,2E0,-3.1149396E-1,3.5E1,2E1,1.3000002E0,1E0,1.6000001E0,6E0,1.2000002E0,1E0,1.76E2,-2.0277283E-1,1.7300001E0,-9.92321E-2,1.8100002E0,-1.9164309E-1,5.0795667E-2,7.5014494E-4,-1.1188216E-1,-2.4941398E-2,-2.4973659E-1,-1.2932988E-1,-2.2762728E-1,1.501173E-2,1.5102786E-2,-1.327158E-1,-1.2107961E-1,-7.7880737E-3,-1.4752604E-1,-5.2022316E-2,-4.909964E-2,-2.3741995E-1,-3.1108514E-3,-1.87927E-1,-1.858718E-2,1.8243933E-2,-2.293483E-1,2.8449109E-2,-7.610487E-2,4.9433216E-2,1.7864445E-2,7.76116E-2,-3.0035026E-2,6.27695E-2,-2.5843805E-1,-8.3194464E-2,1.7190626E-2,-5.9707996E-2,1.7232488E-1,4.642847E-2,7.2628087E-3,-9.683971E-2,-8.34234E-4,-1.092497E-1,7.683553E-2,1.1915222E-1,-9.1852844E-2,-2.7210805E-1,-1.7140897E-1,1.7044509E-2,2.6485346E-2,7.085987E-2,1.0183502E-1,7.172944E-2,1.3123775E-1,2.0020016E-1,1.2809206E-3,-9.146825E-2,1.0024227E-1,-1.1529491E-1,1.7637517E-2,-1.2934358E-2,4.609608E-2,1.2851441E-1,-1.2951124E-1,-5.1346898E-2],"split_indices":[3,10,0,47,0,45,47,0,0,0,0,3,0,0,47,0,0,3,10,47,47,10,0,3,3,0,0,0,0,10,0,0,3,0,0,0,10,10,10,0,0,0,0,0,3,10,3,10,0,10,0,0,0,10,0,74,0,3,0,8,3,10,3,0,3,3,0,0,0,0,0,3,10,10,3,10,47,10,0,0,0,3,0,0,47,10,0,0,0,10,0,47,0,10,0,3,3,0,47,0,47,0,26,3,0,0,0,0,0,0,0,0,0,0,0,0,0,0,0,0,0,0,0,0,0,0,0,0,0,0,0,0,0,0,0,0,0,0,0,0,0,0,0,0,0,0,0,0,0,0,0,0,0,0,0,0,0,0,0,0,0,0,0,0,0,0,0,0,0],"split_type":[0,0,0,0,0,0,0,0,0,0,0,0,0,0,0,0,0,0,0,0,0,0,0,0,0,0,0,0,0,0,0,0,0,0,0,0,0,0,0,0,0,0,0,0,0,0,0,0,0,0,0,0,0,0,0,0,0,0,0,0,0,0,0,0,0,0,0,0,0,0,0,0,0,0,0,0,0,0,0,0,0,0,0,0,0,0,0,0,0,0,0,0,0,0,0,0,0,0,0,0,0,0,0,0,0,0,0,0,0,0,0,0,0,0,0,0,0,0,0,0,0,0,0,0,0,0,0,0,0,0,0,0,0,0,0,0,0,0,0,0,0,0,0,0,0,0,0,0,0,0,0,0,0,0,0,0,0,0,0,0,0,0,0,0,0,0,0,0,0],"sum_hessian":[4.853E3,2.857E3,1.996E3,1.82E2,2.675E3,1.945E3,5.1E1,1.51E2,3.1E1,2.382E3,2.93E2,1.929E3,1.6E1,4.1E1,1E1,1.9E1,1.2E1,6.27E2,1.755E3,2.58E2,3.5E1,9.92E2,9.37E2,1.8E1,2.3E1,8E0,2E0,3.59E2,2.68E2,1.686E3,6.9E1,1.34E2,1.24E2,1.4E1,2.1E1,1.2E1,9.8E2,9.01E2,3.6E1,1.4E1,4E0,2.1E1,2E0,3E0,5E0,2.96E2,6.3E1,2.38E2,3E1,1.635E3,5.1E1,1E0,6.8E1,1.09E2,2.5E1,1.16E2,8E0,8E0,4E0,5.44E2,4.36E2,6.73E2,2.28E2,5E0,3.1E1,1.3E1,1E0,1E0,3E0,2E0,3E0,1.89E2,1.07E2,3.7E1,2.6E1,2.15E2,2.3E1,1E1,2E1,1.632E3,3E0,1.1E1,4E1,5E1,1.8E1,7.4E1,3.5E1,1.8E1,7E0,1.14E2,2E0,6E0,2E0,3E0,5E0,5.4E2,4E0,6E0,4.3E2,4.06E2,2.67E2,2.5E1,2.03E2,2E0,3E0,2.9E1,2E0,5E0,8E0,1E0,1E0,7.6E1,1.13E2,7E0,1E2,3.6E1,1E0,9E0,1.7E1,9E0,2.06E2,1.4E1,9E0,2E0,8E0,1.1E1,9E0,1.562E3,7E1,8E0,3E0,3.8E1,2E0,2.9E1,2.1E1,1.3E1,5E0,4E0,7E1,1E1,1.04E2,3E0,3E0,1E0,1E0,1E0,2E0,3.18E2,2.22E2,2E0,2E0,4E0,2E0,2.52E2,1.78E2,2.88E2,1.18E2,2.09E2,5.8E1,7E0,1.8E1,2E2,3E0,1E0,1E0,2.1E1,8E0,2E0,3E0],"tree_param":{"num_deleted":"0","num_feature":"77","num_nodes":"169","size_leaf_vector":"1"}},{"base_weights":[1.4398897E-3,-1.078404E0,1.5457727E0,-5.8642116E0,-8.718309E-1,-3.872385E0,1.681198E0,-6.0531297E0,-1.956852E-1,-4.407473E0,-6.4201194E-1,-8.427911E-1,-2.498447E-1,1.815564E0,-3.354924E0,-2.857919E-1,-7.5858414E-2,-4.6209226E0,-3.3219862E0,-4.6268666E-1,-2.0972302E0,-2.7007155E0,7.2782767E-1,1.8641274E0,-1.8876743E-1,-1.586402E0,-4.9944105E0,-2.2342442E-1,-1.6354316E-1,-3.7337303E0,-1.1584174E-1,-1.834601E0,-3.9795157E-1,-1.7399054E0,-4.740685E0,-1.5172361E-1,2.3288043E-2,1.569976E-1,-8.6899394E-1,1.8750479E0,-2.6358184E-1,-2.481703E0,3.804668E-1,-5.360222E0,-1.6423914E0,-1.8796E-1,-8.173172E-2,-1.9894359E0,5.73054E-1,-3.0423883E-1,-1.4620165E0,-2.5215788E0,-9.25289E-1,-1.8212755E-1,-2.8763756E-1,2.6366606E-2,-9.784276E-2,1.9233291E0,5.3842366E-1,-3.0031302E0,-5.253668E-1,1.288033E0,-5.057296E-2,-2.6072216E-1,-1.0644956E-1,-1.0341356E-1,7.3250686E-4,-1.4470062E0,-2.4703796E0,1.3941904E0,-1.6092471E-3,-3.6947778E-1,3.0621818E-1,-3.112779E0,-4.7619215E-1,-1.9130341E0,-3.451241E0,2.2054613E0,-1.0753664E0,1.3558332E0,2.049843E0,-9.2659897E-1,1.0955055E0,-9.397258E-2,-1.883909E-1,3.4931034E-2,-4.8331425E-2,8.096748E-2,2.7916145E-1,-1.4299607E-1,-3.60733E-2,-1.23910286E-1,4.569203E-3,1.4658946E-2,8.363342E-2,-1.4939E-2,-1.2230077E-1,-1.7436187E-1,2.1307291E-2,-1.8049993E-1,-6.443017E-2,7.5997086E-4,-6.405506E-2,-1.5487501E-1,-6.820673E-2,-1.7289782E-1,-8.583199E-2,1.6881411E-1,2.8877487E-2,-5.288302E-2,1.1277715E-1,1.0373219E-1,1.6854808E-2,1.0728855E-1,7.23051E-2,-1.02769755E-1,3.366647E-2,6.943922E-2,-3.5578643E-3,-2.9920679E-2,4.960195E-2],"categories":[],"categories_nodes":[],"categories_segments":[],"categories_sizes":[],"default_left":[0,0,0,0,0,0,0,0,0,0,0,0,0,0,0,0,0,0,0,0,0,0,0,0,0,0,0,0,0,0,0,0,0,0,0,0,0,0,0,0,0,0,0,0,0,0,0,0,0,0,0,0,0,0,0,0,0,0,0,0,0,0,0,0,0,0,0,0,0,0,0,0,0,0,0,0,0,0,0,0,0,0,0,0,0,0,0,0,0,0,0,0,0,0,0,0,0,0,0,0,0,0,0,0,0,0,0,0,0,0,0,0,0,0,0,0,0,0,0,0,0],"id":9,"left_children":[1,3,5,7,9,11,13,15,-1,17,19,21,-1,23,25,-1,-1,27,29,31,33,35,37,39,-1,41,43,-1,-1,45,-1,47,49,51,53,-1,-1,-1,55,57,-1,59,61,63,65,-1,-1,67,69,71,73,75,77,-1,-1,-1,-1,79,81,83,85,87,-1,-1,-1,-1,-1,89,91,93,-1,95,97,99,101,103,105,107,109,111,113,115,117,-1,-1,-1,-1,-1,119,-1,-1,-1,-1,-1,-1,-1,-1,-1,-1,-1,-1,-1,-1,-1,-1,-1,-1,-1,-1,-1,-1,-1,-1,-1,-1,-1,-1,-1,-1,-1,-1],"loss_changes":[8.093048E3,2.8183833E3,1.4718208E3,1.2712402E1,2.2227651E3,2.0978613E2,1.3249473E3,2.8493652E0,0E0,2.334253E1,6.7047314E2,5.1573208E1,0E0,5.453076E2,1.399497E2,0E0,0E0,4.208252E0,1.7404785E0,2.028247E2,2.581211E2,1.5084404E1,4.461937E1,1.6424756E2,0E0,4.672863E1,2.307782E1,0E0,0E0,3.1025085E0,0E0,3.9537354E1,2.1793417E2,1.5685779E2,1.5685547E1,0E0,0E0,0E0,1.3306975E1,1.2041748E2,0E0,1.6783813E1,1.3282477E1,7.4609375E-1,3.733923E0,0E0,0E0,2.17305E1,3.538426E0,8.032184E1,2.8656073E2,6.5246826E1,6.063369E1,0E0,0E0,0E0,0E0,1.2760303E2,5.5696297E1,6.1103363E0,3.9543064E0,2.1501026E0,0E0,0E0,0E0,0E0,0E0,4.9700966E1,2.156189E1,6.957693E-1,0E0,2.0897623E2,1.168932E2,7.83833E1,4.8916153E1,4.564682E1,1.1386719E1,1.1026941E1,2.3284943E1,2.8271808E2,1.73104E2,4.0895462E1,2.2028423E1,0E0,0E0,0E0,0E0,0E0,2.804204E0,0E0,0E0,0E0,0E0,0E0,0E0,0E0,0E0,0E0,0E0,0E0,0E0,0E0,0E0,0E0,0E0,0E0,0E0,0E0,0E0,0E0,0E0,0E0,0E0,0E0,0E0,0E0,0E0,0E0,0E0,0E0,0E0],"parents":[2147483647,0,0,1,1,2,2,3,3,4,4,5,5,6,6,7,7,9,9,10,10,11,11,13,13,14,14,17,17,18,18,19,19,20,20,21,21,22,22,23,23,25,25,26,26,29,29,31,31,32,32,33,33,34,34,38,38,39,39,41,41,42,42,43,43,44,44,47,47,48,48,49,49,50,50,51,51,52,52,57,57,58,58,59,59,60,60,61,61,67,67,68,68,69,69,71,71,72,72,73,73,74,74,75,75,76,76,77,77,78,78,79,79,80,80,81,81,82,82,88,88],"right_children":[2,4,6,8,10,12,14,16,-1,18,20,22,-1,24,26,-1,-1,28,30,32,34,36,38,40,-1,42,44,-1,-1,46,-1,48,50,52,54,-1,-1,-1,56,58,-1,60,62,64,66,-1,-1,68,70,72,74,76,78,-1,-1,-1,-1,80,82,84,86,88,-1,-1,-1,-1,-1,90,92,94,-1,96,98,100,102,104,106,108,110,112,114,116,118,-1,-1,-1,-1,-1,120,-1,-1,-1,-1,-1,-1,-1,-1,-1,-1,-1,-1,-1,-1,-1,-1,-1,-1,-1,-1,-1,-1,-1,-1,-1,-1,-1,-1,-1,-1,-1,-1],"split_conditions":[1.1E1,1E0,8E0,7E0,1E0,1.1E1,1.7700002E0,1E0,-1.956852E-1,1.9E1,1.6400002E0,5E0,-2.498447E-1,1E0,1.8900002E0,-2.857919E-1,-7.5858414E-2,2E0,2.2700002E0,1E0,1.9800003E0,2E0,1.2300001E0,7E0,-1.8876743E-1,4E0,2E0,-2.2342442E-1,-1.6354316E-1,1E0,-1.1584174E-1,1.2000002E0,7E0,1E0,2E0,-1.5172361E-1,2.3288043E-2,1.569976E-1,9E0,1.6900002E0,-2.6358184E-1,1.46E2,9.5E1,1.85E2,8.1E1,-1.8796E-1,-8.173172E-2,3E0,1.5090002E0,5E0,5E0,6E0,1.6600002E0,-1.8212755E-1,-2.8763756E-1,2.6366606E-2,-9.784276E-2,3.1E1,1E0,8E1,1.8300002E0,1.8100002E0,-5.057296E-2,-2.6072216E-1,-1.0644956E-1,-1.0341356E-1,7.3250686E-4,2E0,1E0,1.4000001E0,-1.6092471E-3,7E0,2E0,1.5690001E0,3E1,3E0,1.9300002E0,2E0,1E0,1.3E1,9.7E1,1.12E2,1.76E2,-9.397258E-2,-1.883909E-1,3.4931034E-2,-4.8331425E-2,8.096748E-2,1.8400002E0,-1.4299607E-1,-3.60733E-2,-1.23910286E-1,4.569203E-3,1.4658946E-2,8.363342E-2,-1.4939E-2,-1.2230077E-1,-1.7436187E-1,2.1307291E-2,-1.8049993E-1,-6.443017E-2,7.5997086E-4,-6.405506E-2,-1.5487501E-1,-6.820673E-2,-1.7289782E-1,-8.583199E-2,1.6881411E-1,2.8877487E-2,-5.288302E-2,1.1277715E-1,1.0373219E-1,1.6854808E-2,1.0728855E-1,7.23051E-2,-1.02769755E-1,3.366647E-2,6.943922E-2,-3.5578643E-3,-2.9920679E-2,4.960195E-2],"split_indices":[3,73,73,3,10,2,0,29,0,47,0,73,0,45,0,0,0,3,0,2,0,47,0,8,0,47,47,0,0,32,0,0,2,47,73,0,0,0,2,0,0,3,2,3,2,0,0,10,0,3,73,2,0,0,0,0,0,3,47,10,0,0,0,0,0,0,0,10,54,0,0,10,73,0,10,10,0,47,32,73,2,10,3,0,0,0,0,0,0,0,0,0,0,0,0,0,0,0,0,0,0,0,0,0,0,0,0,0,0,0,0,0,0,0,0,0,0,0,0,0,0],"split_type":[0,0,0,0,0,0,0,0,0,0,0,0,0,0,0,0,0,0,0,0,0,0,0,0,0,0,0,0,0,0,0,0,0,0,0,0,0,0,0,0,0,0,0,0,0,0,0,0,0,0,0,0,0,0,0,0,0,0,0,0,0,0,0,0,0,0,0,0,0,0,0,0,0,0,0,0,0,0,0,0,0,0,0,0,0,0,0,0,0,0,0,0,0,0,0,0,0,0,0,0,0,0,0,0,0,0,0,0,0,0,0,0,0,0,0,0,0,0,0,0,0],"sum_hessian":[4.851E3,2.855E3,1.996E3,1.17E2,2.738E3,4.8E1,1.948E3,1.03E2,1.4E1,1.66E2,2.572E3,1.6E1,3.2E1,1.898E3,5E1,1.02E2,1E0,1.36E2,3E1,2.291E3,2.81E2,7E0,9E0,1.883E3,1.5E1,2.5E1,2.5E1,1.19E2,1.7E1,1.8E1,1.2E1,1.02E2,2.189E3,2.49E2,3.2E1,6E0,1E0,3E0,6E0,1.881E3,2E0,1.7E1,8E0,2.2E1,3E0,1.5E1,3E0,9.6E1,6E0,2.013E3,1.76E2,1.26E2,1.23E2,2.2E1,1E1,3E0,3E0,1.815E3,6.6E1,1.3E1,4E0,5E0,3E0,2E1,2E0,2E0,1E0,4.7E1,4.9E1,2E0,4E0,1.819E3,1.94E2,6.5E1,1.11E2,7.8E1,4.8E1,5E0,1.18E2,3.33E2,1.482E3,1.8E1,4.8E1,8E0,5E0,1E0,3E0,3E0,2E0,1.3E1,3.4E1,4.6E1,3E0,1E0,1E0,1.779E3,4E1,6E0,1.88E2,4.5E1,2E1,7.2E1,3.9E1,1.8E1,6E1,4.1E1,7E0,2E0,3E0,1.17E2,1E0,1.79E2,1.54E2,1.016E3,4.66E2,1E1,8E0,3.6E1,1.2E1,1E0,1E0],"tree_param":{"num_deleted":"0","num_feature":"77","num_nodes":"121","size_leaf_vector":"1"}},{"base_weights":[-1.5076462E-2,-1.0502168E0,1.325651E0,-4.3003836E0,-7.95642E-1,5.1614255E-1,1.6212095E0,-2.1328795E-1,-3.0643377E0,-6.439024E-1,-1.3731054E0,6.7347014E-1,-4.6024564E-1,1.3204257E0,2.2069945E0,8.4999956E-2,-3.2608461E0,-5.3123784E-1,-3.4994817E0,-1.9128115E0,-1.8070105E-1,3.6891365E-1,1.2495689E0,-2.6676652E0,-2.507103E-2,1.4427454E0,-4.7321597E-1,1.254754E0,2.5629725E0,-1.5565658E-1,-3.7133735E-2,-4.4993243E-1,-1.4604622E0,-3.180388E0,-2.595194E-1,-2.5493221E0,-5.9162354E-1,-3.1066641E-2,-2.4969277E0,4.1418666E-1,-2.139949E-1,1.3393921E0,-1.9445084E-1,-1.3269909E-1,-1.8793248E-2,1.5088102E0,-4.5871532E-1,2.658313E0,1.3826494E0,-2.9741914E0,1.3344898E0,1.0758061E0,3.5450735E0,2.799204E0,1.0571115E0,-1.4004501E0,-4.2556778E-1,-1.1072329E-1,-6.954366E-1,-1.652985E-1,-2.1968641E0,-2.735927E0,-6.373367E-1,-9.6339196E-2,-1.7308531E0,-2.622558E-1,1.3172121E0,-1.61543E-1,3.9588287E-2,4.65861E-1,-3.7587156E0,9.8600364E-1,2.3273172E0,-6.188747E-1,2.3387752E0,-1.024864E0,1.7961128E0,3.650108E0,4.975023E-1,3.3137488E-1,1.5426404E0,-2.604209E-1,-7.029666E-1,1.7353439E0,-1.9055152E-1,1.3716544E0,-1.5791432E0,4.1011233E0,-3.429602E-2,2.7060661E0,1.9964755E-1,1.4251683E0,-2.0635273E0,1.093103E0,-2.369692E0,-1.9902665E-2,-9.619274E-2,1.9230748E-2,-4.0663417E-2,-1.3361855E-1,-1.2710576E-1,-2.6162899E0,-2.837327E-1,-1.0738415E-1,-1.1861571E-1,9.825759E-2,-2.6424737E0,-1.9822325E-1,-9.852154E-1,-1.0587484E-1,-3.084328E0,7.266156E-1,9.458119E-2,5.102135E-1,-2.028968E-1,-2.054865E-1,-4.509646E-2,1.329783E0,3.688822E-2,2.5802083E0,-8.951963E-2,1.3434162E0,-1.9900283E-1,-2.2702357E-2,2.6692564E0,-2.660248E-1,-1.8842279E0,4.3765634E-2,1.2444983E-1,1.8130308E-1,6.289262E-2,-2.452489E-1,1.6686535E-1,7.279822E-1,-1.8569691E0,1.8515221E0,1.324183E0,4.451372E-1,-2.242691E0,9.5676345E-1,1.6396962E-1,1.459582E0,-1.2232778E-1,-2.968171E0,-1.663512E-1,2.1594384E0,2.2147116E-1,2.7926364E0,3.235147E-1,5.1392114E-1,2.1764574E0,-1.0662975E-1,-2.4388688E-2,-1.1098082E-1,1.3586703E-1,-4.9000797E-3,-1.2222368E-1,-3.1018509E-2,4.6336528E-2,-7.088452E-2,-1.444316E-1,4.563899E-2,-2.160606E-2,1.6442172E-1,-1.6678905E-3,-1.7444292E-1,-5.5465873E-2,-2.3033474E-2,-1.3167861E-1,-1.2973545E-2,5.1815942E-2,-1.738988E-1,1.4314454E-2,5.9080034E-2,-7.694596E-2,2.5797313E-2,-1.228172E-1,3.868325E-2,8.125795E-2,-5.3221945E-2,2.364672E-2,1.7872049E-1,9.6975304E-2,1.2860511E-2,7.56154E-2,1.4977318E-1,1.8796587E-2,-4.027402E-2,1.3641813E-1,-4.0456265E-2,-1.018981E-1,-3.184174E-2,1.7480649E-2,3.9708722E-2,-8.2485065E-2,1.0144337E-2,-1.0618021E-1,8.964814E-2,-4.888197E-3,-5.9107156E-3,7.759564E-2,-9.939073E-2,8.668307E-2,-6.0916573E-2,-1.4442566E-1,5.509842E-2,-1.0621376E-2,5.428557E-2,1.11652836E-1,4.4149878E-3,-1.6422957E-1,-1.554839E-1,3.5488363E-2,1.3710089E-1,-2.6601225E-3,8.251646E-2,1.3618593E-1,-3.1109085E-2,2.7579313E-2,6.6126324E-3,1.3889813E-1,1.1616967E-1,3.66867E-2],"categories":[],"categories_nodes":[],"categories_segments":[],"categories_sizes":[],"default_left":[0,0,0,0,0,0,0,0,0,0,0,0,0,0,0,0,0,0,0,0,0,0,0,0,0,0,0,0,0,0,0,0,0,0,0,0,0,0,0,0,0,0,0,0,0,0,0,0,0,0,0,0,0,0,0,0,0,0,0,0,0,0,0,0,0,0,0,0,0,0,0,0,0,0,0,0,0,0,0,0,0,0,0,0,0,0,0,0,0,0,0,0,0,0,0,0,0,0,0,0,0,0,0,0,0,0,0,0,0,0,0,0,0,0,0,0,0,0,0,0,0,0,0,0,0,0,0,0,0,0,0,0,0,0,0,0,0,0,0,0,0,0,0,0,0,0,0,0,0,0,0,0,0,0,0,0,0,0,0,0,0,0,0,0,0,0,0,0,0,0,0,0,0,0,0,0,0,0,0,0,0,0,0,0,0,0,0,0,0,0,0,0,0,0,0,0,0,0,0,0,0,0,0,0,0,0,0,0,0,0,0,0,0,0,0,0,0,0,0,0,0,0,0],"id":10,"left_children":[1,3,5,7,9,11,13,-1,15,17,19,21,23,25,27,-1,29,31,33,35,37,39,41,43,45,47,49,51,53,-1,-1,55,57,59,-1,61,63,65,67,69,-1,71,-1,-1,-1,73,75,77,79,81,83,85,87,89,91,93,95,-1,97,-1,99,101,103,105,107,109,111,-1,-1,113,115,117,119,121,123,125,127,129,131,133,135,-1,137,139,-1,141,143,145,-1,147,-1,149,151,153,155,-1,-1,-1,-1,157,-1,159,-1,161,-1,163,165,-1,167,169,171,173,-1,175,-1,-1,-1,177,179,181,-1,183,-1,-1,185,187,189,-1,-1,-1,-1,191,-1,193,195,197,199,201,203,205,-1,207,-1,209,211,213,-1,215,217,219,221,-1,-1,-1,-1,-1,-1,-1,-1,-1,-1,-1,-1,-1,-1,-1,-1,-1,-1,-1,-1,-1,-1,-1,-1,-1,-1,-1,-1,-1,-1,-1,-1,-1,-1,-1,-1,-1,-1,-1,-1,-1,-1,-1,-1,-1,-1,-1,-1,-1,-1,-1,-1,-1,-1,-1,-1,-1,-1,-1,-1,-1,-1,-1,-1,-1,-1,-1,-1,-1,-1,-1,-1],"loss_changes":[6.711604E3,2.2545815E3,5.0327783E2,4.423633E1,2.2097998E2,8.710118E1,2.6895435E2,0E0,3.9411377E1,6.438383E2,3.3816058E2,8.498543E1,7.582154E1,2.249071E2,1.7372998E2,0E0,1.6620178E0,1.4530731E2,3.1477417E1,3.0291565E2,5.7109318E1,7.319119E1,8.6828766E1,3.4603271E0,4.5257755E1,6.623413E1,3.0235684E2,5.520421E1,1.3186328E2,0E0,0E0,4.058084E1,1.04526184E2,1.4780884E1,0E0,8.531213E1,6.697812E1,4.8971798E1,3.428657E1,7.032202E1,0E0,5.5659424E1,0E0,0E0,0E0,2.7935963E1,6.949888E1,9.2479614E1,1.5321838E2,1.5932423E2,9.127863E1,1.0820343E2,2.676236E1,3.262207E1,6.381518E1,1.08932E2,5.0822144E0,0E0,1.6289581E1,0E0,2.0578964E1,7.1874146E1,2.2721567E1,4.1879086E1,6.259208E1,5.8810097E1,7.9800453E0,0E0,0E0,6.9022194E1,2.67173E0,4.0410446E1,5.0933975E1,4.1157875E1,1.1547363E1,2.7539871E1,5.6379128E0,9.218567E0,3.488225E1,1.0723727E2,5.105786E1,0E0,2.9282518E1,4.7170418E1,0E0,4.6432022E1,2.6979942E1,5.008087E-1,0E0,6.303662E1,0E0,3.1742752E1,7.240372E-1,8.755102E1,1.6457642E1,0E0,0E0,0E0,0E0,3.5967503E0,0E0,1.04671265E2,0E0,7.6651177E0,0E0,3.6047844E1,4.999775E0,0E0,2.470944E1,2.6620949E1,1.5729591E1,1.9609362E1,0E0,3.922274E1,0E0,0E0,0E0,1.698021E1,1.910415E1,1.8060364E1,0E0,6.954465E-1,0E0,0E0,1.0465897E1,4.741756E1,3.9425812E0,0E0,0E0,0E0,0E0,3.7197719E0,0E0,3.1661022E1,1.6325157E1,3.580139E1,2.2193488E2,3.9715282E1,1.5181503E0,7.1473675E0,0E0,3.0735764E1,0E0,1.1603035E1,2.5656485E1,6.8800716E0,0E0,2.7432129E1,3.5014594E0,2.054103E1,8.784203E0,0E0,0E0,0E0,0E0,0E0,0E0,0E0,0E0,0E0,0E0,0E0,0E0,0E0,0E0,0E0,0E0,0E0,0E0,0E0,0E0,0E0,0E0,0E0,0E0,0E0,0E0,0E0,0E0,0E0,0E0,0E0,0E0,0E0,0E0,0E0,0E0,0E0,0E0,0E0,0E0,0E0,0E0,0E0,0E0,0E0,0E0,0E0,0E0,0E0,0E0,0E0,0E0,0E0,0E0,0E0,0E0,0E0,0E0,0E0,0E0,0E0,0E0,0E0,0E0,0E0,0E0,0E0,0E0,0E0,0E0,0E0,0E0],"parents":[2147483647,0,0,1,1,2,2,3,3,4,4,5,5,6,6,8,8,9,9,10,10,11,11,12,12,13,13,14,14,16,16,17,17,18,18,19,19,20,20,21,21,22,22,23,23,24,24,25,25,26,26,27,27,28,28,31,31,32,32,33,33,35,35,36,36,37,37,38,38,39,39,41,41,45,45,46,46,47,47,48,48,49,49,50,50,51,51,52,52,53,53,54,54,55,55,56,56,58,58,60,60,61,61,62,62,63,63,64,64,65,65,66,66,69,69,70,70,71,71,72,72,73,73,74,74,75,75,76,76,77,77,78,78,79,79,80,80,82,82,83,83,85,85,86,86,87,87,89,89,91,91,92,92,93,93,94,94,99,99,101,101,103,103,105,105,106,106,108,108,109,109,110,110,111,111,113,113,117,117,118,118,119,119,121,121,124,124,125,125,126,126,131,131,133,133,134,134,135,135,136,136,137,137,138,138,139,139,141,141,143,143,144,144,145,145,147,147,148,148,149,149,150,150],"right_children":[2,4,6,8,10,12,14,-1,16,18,20,22,